svm_type c_svc
kernel_type rbf
gamma 1
nr_class 2
total_sv 206
rho 87.2792
label 1 -1
probA -1.9219
probB 0.272402
nr_sv 99 107
SV
1000 1:0.003751 2:0.004243 3:0.001584 4:0.001516 5:0.002363 6:0.006444 7:0.003214 8:0.004174 9:0.005021 10:0.007249 11:0.0067 12:0.006966 13:0.008985 14:0.023312 15:0.021592 16:0.008404 17:0.006639 18:0.005371 19:0.014935 20:0.013394 21:0.013213 22:0.008775 23:0.012593 24:0.011461 25:0.017087 26:0.013765 27:0.015677 28:0.019679 29:0.009817 30:0.004411 31:0.005418 32:0.009734 33:0.018462 34:0.016377 35:0.009692 36:0.012289 37:0.032928 38:0.020887 39:0.008976 40:0.007712 41:0.00707 42:0.00909 43:0.009164 44:0.005719 45:0.009688 46:0.011823 47:0.016237 48:0.008159 49:0.010275 50:0.027906 51:0.02203 52:0.005806 53:0.006245 54:0.007075 55:0.007161 56:0.00182 57:0.001742 58:0.002167 59:0.007313 60:0.006268 61:0.00149 62:0.000952 63:0.003382 
749.7737393232593 1:0.000468 2:0.000179 3:0.00048 4:0.000757 5:0.003772 6:0.004105 7:0.000936 8:0.000686 9:0.000307 10:0.002841 11:0.003375 12:0.005048 13:0.008985 14:0.022028 15:0.024655 16:0.007965 17:0.002559 18:0.001331 19:0.009205 20:0.01004 21:0.014968 22:0.023192 23:0.022768 24:0.021469 25:0.027378 26:0.019661 27:0.007023 28:0.013722 29:0.010266 30:0.022992 31:0.031836 32:0.015872 33:0.009868 34:0.011183 35:0.012274 36:0.00895 37:0.007942 38:0.007336 39:0.031759 40:0.04428 41:0.022362 42:0.021955 43:0.005872 44:0.003776 45:0.005569 46:0.006921 47:0.003259 48:0.005865 49:0.008128 50:0.021705 51:0.051457 52:0.012124 53:0.004171 54:0.00637 55:0.000675 56:0.000349 57:0.001017 58:0.001327 59:0.005353 60:0.012589 61:0.001836 62:0.000222 63:0.000349 
108.3937971300938 1:0.000429 2:0.000416 3:0.000787 4:0.001136 5:0.004432 6:0.00376 7:0.001977 8:0.000515 9:0.000401 10:0.001219 11:0.002446 12:0.007555 13:0.015794 14:0.034987 15:0.025696 16:0.011911 17:0.003834 18:0.002718 19:0.004386 20:0.009069 21:0.025105 22:0.021845 23:0.029568 24:0.026949 25:0.014047 26:0.005453 27:0.007999 28:0.011736 29:0.020595 30:0.035685 31:0.015849 32:0.019482 33:0.012574 34:0.004708 35:0.004246 36:0.010711 37:0.026741 38:0.026633 39:0.02152 40:0.007819 41:0.015399 42:0.012601 43:0.006984 44:0.007781 45:0.017394 46:0.014611 47:0.017195 48:0.022971 49:0.015114 50:0.026877 51:0.023443 52:0.013807 53:0.012589 54:0.013395 55:0.005249 56:0.005178 57:0.013693 58:0.016608 59:0.023798 60:0.015771 61:0.010951 62:0.005709 63:0.006171 
1000 1:0.001291 2:0.001287 3:0.001174 4:0.000845 5:0.003591 6:0.007006 7:0.00136 8:0.00244 9:0.002288 10:0.020391 11:0.003521 12:0.003062 13:0.003915 14:0.010246 15:0.01958 16:0.009942 17:0.012863 18:0.012202 19:0.041753 20:0.002919 21:0.000279 22:0.000152 23:0.000411 24:0.001324 25:0.004778 26:0.020261 27:0.020311 28:0.046547 29:0.002139 30:2.3e-05 31:7e-06 32:0.000343 33:0.000648 34:0.003962 35:0.029423 36:0.026981 37:0.040437 38:0.002319 39:1.4e-05 40:0.000149 41:0.000388 42:0.000735 43:0.004358 44:0.020025 45:0.018736 46:0.025785 47:0.003535 48:0.001279 49:0.00236 50:0.010277 51:0.01085 52:0.00821 53:0.014604 54:0.014978 55:0.002507 56:0.001471 57:0.001165 58:0.001847 59:0.010066 60:0.010155 61:0.004374 62:0.002969 63:0.002725 
1000 1:0.002216 2:0.003082 3:0.002603 4:0.003537 5:0.00741 6:0.009175 7:0.006465 8:0.00586 9:0.003704 10:0.013382 11:0.006959 12:0.008536 13:0.014837 14:0.020698 15:0.021516 16:0.01297 17:0.007311 18:0.010096 19:0.020734 20:0.014389 21:0.010951 22:0.007172 23:0.00952 24:0.011296 25:0.003691 26:0.000862 27:0.008429 28:0.025104 29:0.004954 30:0.002056 31:0.002606 32:0.00202 33:0.002592 34:0.002085 35:0.001212 36:0.010214 37:0.015845 38:0.002729 39:0.000735 40:0.003003 41:0.008391 42:0.003664 43:0.005453 44:0.016213 45:0.013472 46:0.014641 47:0.003491 48:0.002596 49:0.007416 50:0.017138 51:0.01341 52:0.017195 53:0.01565 54:0.008671 55:0.001102 56:0.001278 57:0.00121 58:0.002512 59:0.01391 60:0.011397 61:0.006488 62:0.003209 63:0.001521 
1000 1:0.002039 2:0.002136 3:0.00143 4:0.005932 5:0.01935 6:0.030027 7:0.008048 8:0.00096 9:0.000947 10:0.015594 11:0.00348 12:0.003266 13:0.004918 14:0.037218 15:0.039799 16:0.013016 17:0.005699 18:0.005261 19:0.036036 20:0.008952 21:0.002649 22:0.003667 23:0.014067 24:0.012907 25:0.006513 26:0.006819 27:0.013241 28:0.030765 29:0.007344 30:0.00626 31:0.009166 32:0.022439 33:0.014204 34:0.00331 35:0.002992 36:0.006997 37:0.032735 38:0.004387 39:0.001532 40:0.005384 41:0.019804 42:0.015207 43:0.002675 44:0.001762 45:0.011479 46:0.022396 47:0.005383 48:0.002151 49:0.00353 50:0.034487 51:0.032623 52:0.00717 53:0.003105 54:0.011668 55:0.002978 56:0.002363 57:0.002221 58:0.003714 59:0.022172 60:0.025173 61:0.00567 62:0.001801 63:0.003749 
1000 1:0.005231 2:0.004371 3:0.00571 4:0.009562 5:0.025291 6:0.023868 7:0.008544 8:0.003654 9:0.003703 10:0.00895 11:0.005272 12:0.007522 13:0.020198 14:0.0233 15:0.024817 16:0.020697 17:0.01308 18:0.004201 19:0.0243 20:0.007326 21:0.012391 22:0.00572 23:0.005055 24:0.004617 25:0.005869 26:0.018587 27:0.010839 28:0.035915 29:0.010464 30:0.002995 31:0.000306 32:0.000124 33:0.002142 34:0.005463 35:0.00683 36:0.013719 37:0.025121 38:0.006691 39:0.009541 40:0.003032 41:0.0031 42:0.002518 43:0.004905 44:0.017292 45:0.018149 46:0.014604 47:0.003701 48:0.009818 49:0.013009 50:0.016659 51:0.014599 52:0.014189 53:0.01742 54:0.006924 55:0.001213 56:0.001331 57:0.002501 58:0.006446 59:0.03107 60:0.02451 61:0.010175 62:0.001587 63:0.001955 
1000 1:0.001078 2:0.000245 3:0.000523 4:0.000583 5:0.001279 6:0.001591 7:0.00105 8:0.000457 9:0.000436 10:0.004194 11:0.005269 12:0.004123 13:0.00292 14:0.008021 15:0.009741 16:0.003954 17:0.005146 18:0.005778 19:0.010157 20:0.013829 21:0.014832 22:0.00584 23:0.00906 24:0.009166 25:0.008331 26:0.014612 27:0.014125 28:0.025011 29:0.012495 30:0.010027 31:0.005183 32:0.00567 33:0.003151 34:0.004506 35:0.005252 36:0.008814 37:0.021273 38:0.010776 39:0.005875 40:0.005251 41:0.006858 42:0.004781 43:0.004598 44:0.008535 45:0.022756 46:0.006732 47:0.004016 48:0.00336 49:0.005765 50:0.019108 51:0.024193 52:0.010099 53:0.010286 54:0.010101 55:0.000603 56:0.000252 57:0.000707 58:0.000878 59:0.006846 60:0.00735 61:0.001934 62:0.001409 63:0.00128 
1000 1:0.001831 2:0.00106 3:0.003381 4:0.003338 5:0.009288 6:0.009137 7:0.005167 8:0.004755 9:0.00251 10:0.008846 11:0.005525 12:0.004872 13:0.008649 14:0.023156 15:0.019624 16:0.012522 17:0.0133 18:0.009873 19:0.005892 20:0.00669 21:0.007642 22:0.009549 23:0.016887 24:0.025414 25:0.012395 26:0.01279 27:0.013383 28:0.005578 29:0.005013 30:0.003094 31:0.008359 32:0.011766 33:0.026659 34:0.025664 35:0.019602 36:0.008994 37:0.006686 38:0.005375 39:0.005892 40:0.005662 41:0.012522 42:0.014082 43:0.015185 44:0.019088 45:0.010939 46:0.003352 47:0.006647 48:0.006773 49:0.011988 50:0.0175 51:0.021331 52:0.013499 53:0.009041 54:0.004235 55:0.001409 56:0.002234 57:0.001754 58:0.007265 59:0.006688 60:0.005449 61:0.002102 62:0.00222 63:0.001576 
1000 1:0.000439 2:0.000205 3:0.001073 4:0.00213 5:0.002011 6:0.003295 7:0.004429 8:0.000951 9:0.000914 10:0.001417 11:0.003646 12:0.002316 13:0.009021 14:0.014606 15:0.016034 16:0.014484 17:0.005708 18:0.001759 19:0.011386 20:0.007941 21:0.012721 22:0.017742 23:0.016275 24:0.011804 25:0.009042 26:0.012936 27:0.010817 28:0.022742 29:0.011903 30:0.014658 31:0.014419 32:0.006935 33:0.00544 34:0.004935 35:0.003631 36:0.009464 37:0.031194 38:0.015504 39:0.012201 40:0.005594 41:0.002916 42:0.004403 43:0.004149 44:0.012471 45:0.022565 46:0.009386 47:0.00566 48:0.005727 49:0.009139 50:0.02126 51:0.022956 52:0.013219 53:0.016819 54:0.013765 55:0.003797 56:0.00166 57:0.003324 58:0.003097 59:0.004785 60:0.008358 61:0.004037 62:0.003385 63:0.003519 
69.35757544425265 1:0.004218 2:0.003705 3:0.001589 4:0.002633 5:0.002697 6:0.003601 7:0.001572 8:0.002273 9:0.003674 10:0.007223 11:0.016208 12:0.014761 13:0.00612 14:0.008315 15:0.007948 16:0.004147 17:0.003875 18:0.005964 19:0.012362 20:0.029507 21:0.035538 22:0.008766 23:0.004138 24:0.003855 25:0.005137 26:0.006121 27:0.005193 28:0.019263 29:0.02928 30:0.022289 31:0.008548 32:0.003053 33:0.001597 34:0.004378 35:0.004788 36:0.008181 37:0.01695 38:0.025405 39:0.014061 40:0.007335 41:0.003349 42:0.00335 43:0.014393 44:0.0227 45:0.006985 46:0.006714 47:0.007534 48:0.008895 49:0.015458 50:0.020191 51:0.013935 52:0.019198 53:0.02209 54:0.0078 55:0.000492 56:0.001249 57:0.002108 58:0.003361 59:0.007769 60:0.004691 61:0.003657 62:0.002831 63:0.001104 
1000 1:0.000888 2:0.001186 3:0.001641 4:0.002241 5:0.002988 6:0.002561 7:0.001818 8:0.001928 9:0.002294 10:0.007436 11:0.009166 12:0.015146 13:0.01321 14:0.007464 15:0.013472 16:0.009432 17:0.015664 18:0.005931 19:0.030946 20:0.04406 21:0.034604 22:0.00963 23:0.003154 24:0.005015 25:0.003108 26:0.008958 27:0.012091 28:0.024645 29:0.02823 30:0.026477 31:0.01294 32:0.012035 33:0.010166 34:0.00885 35:0.005688 36:0.013264 37:0.003512 38:0.006619 39:0.017586 40:0.01857 41:0.014786 42:0.013503 43:0.012858 44:0.00718 45:0.002983 46:0.005852 47:0.006005 48:0.017644 49:0.008747 50:0.011449 51:0.008795 52:0.008167 53:0.008477 54:0.003748 55:0.00775 56:0.004999 57:0.010336 58:0.006199 59:0.012408 60:0.01271 61:0.00488 62:0.009847 63:0.004721 
569.0501478412118 1:0.006125 2:0.003383 3:0.00175 4:0.000959 5:0.00387 6:0.003809 7:0.00169 8:0.001439 9:0.005985 10:0.013608 11:0.009598 12:0.008257 13:0.01209 14:0.013252 15:0.013836 16:0.015516 17:0.014432 18:0.011227 19:0.015407 20:0.0134 21:0.008067 22:0.007467 23:0.006482 24:0.004832 25:0.007446 26:0.021663 27:0.023865 28:0.01371 29:0.007307 30:0.003453 31:0.004977 32:0.006332 33:0.008342 34:0.011577 35:0.021763 36:0.017763 37:0.018911 38:0.012606 39:0.008907 40:0.00624 41:0.010766 42:0.00529 43:0.009705 44:0.015333 45:0.022835 46:0.010773 47:0.006513 48:0.020536 49:0.014371 50:0.009711 51:0.012202 52:0.015832 53:0.017374 54:0.011722 55:0.000266 56:0.000494 57:0.002911 58:0.005508 59:0.00931 60:0.01121 61:0.003463 62:0.002756 63:0.000789 
1000 1:0.003007 2:0.003069 3:0.002979 4:0.002666 5:0.002656 6:0.003606 7:0.002283 8:0.001916 9:0.00132 10:0.006329 11:0.006188 12:0.010722 13:0.012398 14:0.009163 15:0.007741 16:0.013572 17:0.011922 18:0.006494 19:0.028197 20:0.017357 21:0.017392 22:0.013894 23:0.009783 24:0.009034 25:0.011547 26:0.02263 27:0.023429 28:0.031198 29:0.019511 30:0.015579 31:0.012412 32:0.01113 33:0.008209 34:0.016105 35:0.024491 36:0.027179 37:0.012335 38:0.012564 39:0.020403 40:0.024372 41:0.021598 42:0.026686 43:0.022702 44:0.019335 45:0.012544 46:0.003109 47:0.004659 48:0.009717 49:0.017221 50:0.024446 51:0.023583 52:0.016534 53:0.012633 54:0.003452 55:0.00814 56:0.012435 57:0.012898 58:0.008235 59:0.010478 60:0.008991 61:0.008163 62:0.015112 63:0.007034 
1000 1:0.000453 2:0.000711 3:0.000561 4:0.002077 5:0.011688 6:0.009792 7:0.002212 8:0.000834 9:0.000763 10:0.010471 11:0.012805 12:0.007701 13:0.013206 14:0.038082 15:0.028281 16:0.01087 17:0.004527 18:0.007118 19:0.033925 20:0.008496 21:0.004136 22:0.009638 23:0.008426 24:0.006972 25:0.005747 26:0.002338 27:0.012113 28:0.0429 29:0.005404 30:0.000969 31:0.000904 32:0.002147 33:0.001153 34:0.000654 35:0.000836 36:0.009992 37:0.044586 38:0.010167 39:0.002594 40:0.00194 41:0.001819 42:0.004864 43:0.003591 44:0.003532 45:0.013721 46:0.015183 47:0.012754 48:0.00888 49:0.006682 50:0.019568 51:0.013108 52:0.007928 53:0.007033 54:0.011678 55:0.003367 56:0.004656 57:0.004396 58:0.004978 59:0.010948 60:0.008349 61:0.006747 62:0.003707 63:0.005094 
1000 1:0.001393 2:0.002316 3:0.001248 4:0.004135 5:0.00106 6:0.000745 7:0.003896 8:0.001827 9:0.001643 10:0.007696 11:0.005072 12:0.003147 13:0.004908 14:0.005181 15:0.006601 16:0.001715 17:0.004056 18:0.003791 19:0.018776 20:0.005026 21:0.004159 22:0.006663 23:0.005146 24:0.007147 25:0.003824 26:0.007847 27:0.013223 28:0.032551 29:0.017095 30:0.015754 31:0.005839 32:0.002291 33:0.007563 34:0.007921 35:0.008936 36:0.022008 37:0.044099 38:0.019859 39:0.003451 40:0.003413 41:0.002378 42:0.001846 43:0.005294 44:0.004116 45:0.026007 46:0.008966 47:0.006617 48:0.005452 49:0.01104 50:0.02332 51:0.01221 52:0.011582 53:0.004781 54:0.009533 55:0.000194 56:0.000548 57:0.002022 58:0.00192 59:0.002963 60:0.002712 61:0.001026 62:0.000937 63:0.000827 
1000 1:0.00427 2:0.005124 3:0.00219 4:0.001641 5:0.004528 6:0.003107 7:0.00211 8:0.002417 9:0.003767 10:0.005003 11:0.007021 12:0.007498 13:0.011622 14:0.013267 15:0.014015 16:0.013242 17:0.013074 18:0.005021 19:0.018033 20:0.015954 21:0.021099 22:0.01495 23:0.013828 24:0.013533 25:0.01746 26:0.023827 27:0.019788 28:0.040217 29:0.022591 30:0.010863 31:0.005088 32:0.007206 33:0.00967 34:0.004904 35:0.012412 36:0.022394 37:0.019316 38:0.015125 39:0.009427 40:0.006324 41:0.013527 42:0.017341 43:0.020678 44:0.024387 45:0.016699 46:0.010487 47:0.006098 48:0.006013 49:0.006566 50:0.012319 51:0.007205 52:0.006936 53:0.007452 54:0.007696 55:0.004274 56:0.003602 57:0.00328 58:0.006036 59:0.005916 60:0.003733 61:0.001935 62:0.003426 63:0.006269 
1000 1:0.005035 2:0.009517 3:0.006457 4:0.00702 5:0.00834 6:0.009067 7:0.006576 8:0.00407 9:0.005558 10:0.007945 11:0.006387 12:0.007097 13:0.014345 14:0.020318 15:0.021436 16:0.01704 17:0.008646 18:0.0089 19:0.014679 20:0.008835 21:0.008073 22:0.006237 23:0.005603 24:0.010166 25:0.013344 26:0.012263 27:0.011972 28:0.019827 29:0.017286 30:0.012239 31:0.006608 32:0.004287 33:0.00521 34:0.01158 35:0.006855 36:0.010802 37:0.012136 38:0.015595 39:0.017076 40:0.010359 41:0.010621 42:0.004321 43:0.004929 44:0.007763 45:0.008141 46:0.004905 47:0.008068 48:0.007716 49:0.014207 50:0.0224 51:0.019282 52:0.009867 53:0.010299 54:0.011075 55:0.002681 56:0.004526 57:0.004743 58:0.003702 59:0.007113 60:0.008264 61:0.003429 62:0.006475 63:0.003119 
1000 1:3.6e-05 2:6.2e-05 3:0.000173 4:0.001031 5:0.009015 6:0.00751 7:0.000868 8:0.000342 9:5.3e-05 10:0.003873 11:0.004059 12:0.002724 13:0.007467 14:0.038215 15:0.030893 16:0.008009 17:0.003185 18:0.003056 19:0.019202 20:0.013853 21:0.009509 22:0.008335 23:0.010321 24:0.006314 25:0.006933 26:0.00653 27:0.013583 28:0.042009 29:0.007922 30:0.00345 31:0.005258 32:0.00716 33:0.007879 34:0.004526 35:0.003349 36:0.012836 37:0.029061 38:0.012697 39:0.006602 40:0.004336 41:0.000976 42:0.000719 43:0.004978 44:0.008976 45:0.012811 46:0.022554 47:0.009706 48:0.007014 49:0.00719 50:0.013363 51:0.012772 52:0.006608 53:0.008125 54:0.008172 55:0.004061 56:0.00297 57:0.002705 58:0.004366 59:0.010974 60:0.01075 61:0.003627 62:0.00143 63:0.001715 
1000 1:0.001987 2:0.001615 3:0.001277 4:0.001417 5:0.007723 6:0.008359 7:0.002462 8:0.002132 9:0.00176 10:0.014701 11:0.008093 12:0.007205 13:0.007319 14:0.024558 15:0.03114 16:0.01993 17:0.009757 18:0.011106 19:0.058403 20:0.018446 21:0.004736 22:0.00129 23:0.003294 24:0.002496 25:0.002978 26:0.005187 27:0.021772 28:0.035989 29:0.028994 30:0.011019 31:0.007809 32:0.006719 33:0.004055 34:0.003354 35:0.009627 36:0.015844 37:0.008679 38:0.006711 39:0.010284 40:0.016457 41:0.021318 42:0.024295 43:0.008 44:0.007059 45:0.009562 46:0.0059 47:0.006954 48:0.008862 49:0.007885 50:0.00779 51:0.0054 52:0.010025 53:0.005693 54:0.00438 55:0.0022 56:0.001917 57:0.001624 58:0.004399 59:0.009232 60:0.007334 61:0.004666 62:0.000926 63:0.001192 
298.8481430497308 1:0.003467 2:0.003806 3:0.003435 4:0.007555 5:0.008379 6:0.008089 7:0.007435 8:0.002224 9:0.00265 10:0.006808 11:0.004228 12:0.00477 13:0.006265 14:0.010961 15:0.009189 16:0.006018 17:0.00546 18:0.006596 19:0.012047 20:0.006386 21:0.007441 22:0.008747 23:0.02215 24:0.016808 25:0.005336 26:0.004156 27:0.004909 28:0.030148 29:0.020104 30:0.017171 31:0.009403 32:0.012269 33:0.014115 34:0.006602 35:0.013449 36:0.021105 37:0.038176 38:0.019716 39:0.015107 40:0.005465 41:0.004616 42:0.003074 43:0.004652 44:0.008861 45:0.027471 46:0.013373 47:0.017061 48:0.014795 49:0.010758 50:0.016505 51:0.017444 52:0.011234 53:0.015031 54:0.021377 55:0.002312 56:0.001884 57:0.003386 58:0.004776 59:0.009436 60:0.012069 61:0.005829 62:0.002115 63:0.002632 
1000 1:0.004487 2:0.004658 3:0.004403 4:0.004434 5:0.003396 6:0.004934 7:0.008017 8:0.01049 9:0.009644 10:0.009801 11:0.009051 12:0.011984 13:0.010632 14:0.016476 15:0.016456 16:0.019833 17:0.019213 18:0.015381 19:0.045947 20:0.021537 21:0.009549 22:0.005882 23:0.004655 24:0.005011 25:0.009431 26:0.014435 27:0.025822 28:0.044761 29:0.015436 30:0.009533 31:0.008568 32:0.008629 33:0.007854 34:0.012679 35:0.012053 36:0.020011 37:0.011995 38:0.009588 39:0.012671 40:0.012677 41:0.020726 42:0.018642 43:0.017882 44:0.015389 45:0.011623 46:0.005492 47:0.005582 48:0.012241 49:0.013151 50:0.016291 51:0.013691 52:0.016225 53:0.009391 54:0.00835 55:0.005856 56:0.00488 57:0.00859 58:0.008645 59:0.009352 60:0.013098 61:0.00982 62:0.003037 63:0.00267 
168.0888043440211 1:0.004556 2:0.005422 3:0.004887 4:0.005315 5:0.007917 6:0.0039 7:0.00242 8:0.002722 9:0.003969 10:0.015594 11:0.015587 12:0.019353 13:0.020629 14:0.023061 15:0.015456 16:0.01358 17:0.022 18:0.01623 19:0.047696 20:0.023847 21:0.012851 22:0.008386 23:0.007566 24:0.004818 25:0.004709 26:0.012161 27:0.018843 28:0.041789 29:0.015749 30:0.012127 31:0.011758 32:0.010885 33:0.009873 34:0.012568 35:0.017461 36:0.014046 37:0.010013 38:0.01207 39:0.013974 40:0.013513 41:0.02663 42:0.024816 43:0.022447 44:0.013519 45:0.007855 46:0.005271 47:0.007666 48:0.012115 49:0.011282 50:0.01093 51:0.010768 52:0.008873 53:0.008927 54:0.005054 55:0.004064 56:0.002905 57:0.004598 58:0.009193 59:0.014518 60:0.014059 61:0.005307 62:0.004858 63:0.002616 
1000 1:0.001156 2:0.003682 3:0.00243 4:0.007123 5:0.007135 6:0.00743 7:0.006383 8:0.001526 9:0.003069 10:0.005655 11:0.00738 12:0.020158 13:0.027311 14:0.01615 15:0.017045 16:0.016144 17:0.014194 18:0.006847 19:0.021237 20:0.021198 21:0.013721 22:0.005184 23:0.003297 24:0.00324 25:0.003548 26:0.008838 27:0.014549 28:0.021821 29:0.014851 30:0.014195 31:0.003046 32:0.002633 33:0.003495 34:0.008808 35:0.013847 36:0.018147 37:0.013427 38:0.007611 39:0.015332 40:0.01283 41:0.012933 42:0.017432 43:0.023042 44:0.017839 45:0.006712 46:0.003549 47:0.005128 48:0.011792 49:0.013989 50:0.010138 51:0.013812 52:0.01548 53:0.006535 54:0.000529 55:0.000326 56:0.001304 57:0.002747 58:0.007475 59:0.011912 60:0.007279 61:0.005643 62:0.002884 63:1.8e-05 
1000 1:0.002278 2:0.002682 3:0.002356 4:0.002579 5:0.014097 6:0.013729 7:0.003458 8:0.002877 9:0.002333 10:0.020673 11:0.020111 12:0.007136 13:0.00412 14:0.018701 15:0.025039 16:0.005914 17:0.005487 18:0.016236 19:0.036866 20:0.027956 21:0.006137 22:0.001774 23:0.001234 24:0.001339 25:0.001155 26:0.005211 27:0.024067 28:0.041097 29:0.031432 30:0.005082 31:0.001357 32:0.000585 33:0.000822 34:0.000619 35:0.004345 36:0.028692 37:0.027977 38:0.023415 39:0.002474 40:0.001528 41:0.002229 42:0.001844 43:0.00045 44:0.003719 45:0.019957 46:0.017086 47:0.018662 48:0.002561 49:0.003875 50:0.010023 51:0.007975 52:0.001916 53:0.006331 54:0.015658 55:0.005087 56:0.004282 57:0.001207 58:0.002509 59:0.013502 60:0.009857 61:0.000941 62:0.00255 63:0.003145 
1000 1:0.000942 2:0.001091 3:0.001003 4:0.001154 5:0.005852 6:0.006656 7:0.002161 8:0.001358 9:0.000787 10:0.004755 11:0.004296 12:0.012316 13:0.018435 14:0.031494 15:0.036384 16:0.016186 17:0.00979 18:0.0046 19:0.014581 20:0.010809 21:0.020051 22:0.015192 23:0.021496 24:0.019902 25:0.015512 26:0.017801 27:0.009082 28:0.03237 29:0.015133 30:0.006064 31:0.003603 32:0.002604 33:0.003022 34:0.002785 35:0.004467 36:0.011701 37:0.021565 38:0.010178 39:0.015717 40:0.008794 41:0.004831 42:0.006637 43:0.012795 44:0.011213 45:0.010847 46:0.010983 47:0.00477 48:0.011 49:0.015133 50:0.017312 51:0.019388 52:0.018637 53:0.005763 54:0.006609 55:0.00461 56:0.003316 57:0.001963 58:0.002153 59:0.006554 60:0.008046 61:0.003124 62:0.001216 63:0.002312 
1000 1:0.001678 2:0.001807 3:0.004256 4:0.007786 5:0.00752 6:0.012247 7:0.008949 8:0.007429 9:0.003527 10:0.004896 11:0.005803 12:0.009792 13:0.010645 14:0.035223 15:0.039008 16:0.01903 17:0.011932 18:0.00639 19:0.014826 20:0.009443 21:0.012176 22:0.005845 23:0.013847 24:0.021326 25:0.01581 26:0.015805 27:0.013162 28:0.028 29:0.013222 30:0.016757 31:0.006321 32:0.004487 33:0.007343 34:0.008867 35:0.017547 36:0.013751 37:0.021196 38:0.009609 39:0.02099 40:0.014706 41:0.018538 42:0.010576 43:0.004989 44:0.011757 45:0.007286 46:0.012562 47:0.010425 48:0.013808 49:0.01768 50:0.023961 51:0.016356 52:0.015934 53:0.016978 54:0.008649 55:0.002765 56:0.002319 57:0.003275 58:0.005841 59:0.009074 60:0.008494 61:0.011065 62:0.013145 63:0.004396 
1000 1:0.000882 2:0.000828 3:0.000486 4:0.001118 5:0.006783 6:0.00487 7:0.000785 8:0.000365 9:0.000492 10:0.007304 11:0.007167 12:0.008932 13:0.018016 14:0.036234 15:0.027888 16:0.004822 17:0.00308 18:0.003476 19:0.015042 20:0.0131 21:0.016446 22:0.014096 23:0.01843 24:0.017943 25:0.004831 26:0.001877 27:0.005036 28:0.024146 29:0.008839 30:0.005853 31:0.004635 32:0.018358 33:0.0129 34:0.002249 35:0.004721 36:0.003788 37:0.022941 38:0.005705 39:0.002583 40:0.002679 41:0.012089 42:0.011696 43:0.006225 44:0.011552 45:0.009559 46:0.01382 47:0.006195 48:0.002478 49:0.00604 50:0.034911 51:0.034429 52:0.015039 53:0.010019 54:0.010746 55:0.001984 56:0.000888 57:0.000874 58:0.002027 59:0.0152 60:0.020664 61:0.003477 62:0.001078 63:0.001199 
1000 1:0.009474 2:0.009018 3:0.004285 4:0.001839 5:0.00212 6:0.000726 7:0.00106 8:0.001009 9:0.00542 10:0.010244 11:0.009194 12:0.008997 13:0.012454 14:0.018227 15:0.016276 16:0.008572 17:0.005708 18:0.006022 19:0.01144 20:0.019202 21:0.024891 22:0.01327 23:0.017577 24:0.019273 25:0.01277 26:0.013458 27:0.009973 28:0.036145 29:0.019963 30:0.010167 31:0.004221 32:0.002522 33:0.003057 34:0.002512 35:0.006326 36:0.020223 37:0.014473 38:0.012538 39:0.010452 40:0.010578 41:0.011746 42:0.007985 43:0.014682 44:0.02556 45:0.024479 46:0.004693 47:0.005769 48:0.006998 49:0.015366 50:0.01675 51:0.01787 52:0.026713 53:0.020587 54:0.009305 55:0.002256 56:0.002016 57:0.001405 58:0.002749 59:0.005015 60:0.005344 61:0.004336 62:0.002135 63:0.001404 
1000 1:0.001355 2:0.001657 3:0.00162 4:0.003037 5:0.005014 6:0.004419 7:0.002789 8:0.002386 9:0.00189 10:0.006779 11:0.005302 12:0.011176 13:0.021898 14:0.025311 15:0.01909 16:0.010812 17:0.008173 18:0.005453 19:0.009423 20:0.011216 21:0.013484 22:0.007708 23:0.007006 24:0.017253 25:0.012942 26:0.01217 27:0.011906 28:0.003552 29:0.002121 30:0.002215 31:0.00212 32:0.005395 33:0.014617 34:0.040383 35:0.027449 36:0.008996 37:0.005719 38:0.009172 39:0.00609 40:0.006664 41:0.007786 42:0.016286 43:0.017328 44:0.016259 45:0.013365 46:0.003237 47:0.006595 48:0.015261 49:0.022075 50:0.028406 51:0.036695 52:0.01221 53:0.007382 54:0.004132 55:0.001285 56:0.002458 57:0.002625 58:0.003742 59:0.009786 60:0.008014 61:0.003211 62:0.002253 63:0.000496 
665.3788915111718 1:0.001624 2:0.002052 3:0.002267 4:0.001354 5:0.007373 6:0.007705 7:0.001446 8:0.00208 9:0.001497 10:0.019841 11:0.005445 12:0.007345 13:0.008475 14:0.025472 15:0.028938 16:0.011274 17:0.005581 18:0.011845 19:0.032804 20:0.008475 21:0.003771 22:0.00467 23:0.014941 24:0.011838 25:0.007028 26:0.005626 27:0.017886 28:0.030984 29:0.011394 30:0.005522 31:0.004392 32:0.016598 33:0.015846 34:0.007138 35:0.005747 36:0.01188 37:0.042038 38:0.015223 39:0.002585 40:0.002994 41:0.006443 42:0.005449 43:0.002297 44:0.003665 45:0.014602 46:0.0319 47:0.013056 48:0.004185 49:0.005493 50:0.011411 51:0.00953 52:0.006463 53:0.005017 54:0.017332 55:0.005471 56:0.003158 57:0.002125 58:0.005192 59:0.007996 60:0.007749 61:0.004182 62:0.002774 63:0.003665 
13.44867939157515 1:0.000606 2:0.002049 3:0.004461 4:0.004987 5:0.002546 6:0.003011 7:0.002891 8:0.002028 9:0.00116 10:0.005931 11:0.007981 12:0.012445 13:0.020855 14:0.01764 15:0.018257 16:0.012326 17:0.010223 18:0.005479 19:0.027678 20:0.01083 21:0.010298 22:0.009537 23:0.007221 24:0.007262 25:0.009412 26:0.019706 27:0.022094 28:0.015125 29:0.011872 30:0.007963 31:0.005812 32:0.006146 33:0.003599 34:0.016693 35:0.044186 36:0.010381 37:0.018833 38:0.018717 39:0.01359 40:0.008356 41:0.005336 42:0.008777 43:0.012409 44:0.026573 45:0.017493 46:0.017684 47:0.017983 48:0.016792 49:0.014295 50:0.00874 51:0.009249 52:0.013046 53:0.011104 54:0.014044 55:0.00524 56:0.005565 57:0.009797 58:0.006323 59:0.007652 60:0.006082 61:0.004046 62:0.004693 63:0.002659 
1000 1:0.003177 2:0.003787 3:0.002642 4:0.004791 5:0.007904 6:0.005632 7:0.003285 8:0.003881 9:0.002154 10:0.001759 11:0.00578 12:0.008215 13:0.015056 14:0.02148 15:0.018228 16:0.018114 17:0.009405 18:0.001709 19:0.018117 20:0.018675 21:0.015186 22:0.008519 23:0.00585 24:0.010955 25:0.007049 26:0.011647 27:0.014368 28:0.042318 29:0.03296 30:0.010067 31:0.00085 32:0.000389 33:0.001192 34:0.001654 35:0.002701 36:0.015251 37:0.04122 38:0.031769 39:0.003686 40:0.000628 41:0.000269 42:0.000101 43:0.000254 44:0.001595 45:0.014327 46:0.018122 47:0.019441 48:0.016186 49:0.007255 50:0.006812 51:0.00477 52:0.003575 53:0.005191 54:0.010856 55:0.001544 56:0.003239 57:0.006812 58:0.00624 59:0.011475 60:0.00417 61:0.002457 62:0.00238 63:0.001644 
406.2038237766318 1:0.000579 2:0.001448 3:0.001371 4:0.001713 5:0.001558 6:0.001235 7:0.002944 8:0.001414 9:0.001254 10:0.004366 11:0.004346 12:0.003448 13:0.005075 14:0.012856 15:0.006346 16:0.007695 17:0.004633 18:0.0035 19:0.010159 20:0.010151 21:0.00639 22:0.005092 23:0.015387 24:0.01376 25:0.010512 26:0.012524 27:0.011027 28:0.021155 29:0.012176 30:0.009879 31:0.009382 32:0.0093 33:0.009502 34:0.006487 35:0.007102 36:0.015399 37:0.03744 38:0.018063 39:0.013532 40:0.008582 41:0.003185 42:0.006775 43:0.005877 44:0.006663 45:0.015871 46:0.011179 47:0.008598 48:0.005558 49:0.006376 50:0.006153 51:0.016628 52:0.029132 53:0.015908 54:0.009418 55:0.001756 56:0.000978 57:0.001506 58:0.003048 59:0.005018 60:0.008321 61:0.007164 62:0.002065 63:0.00308 
1000 1:2.5e-05 2:0.000157 3:0.000946 4:0.001435 5:0.003246 6:0.002673 7:0.000436 8:0.000452 9:8.2e-05 10:0.001159 11:0.001929 12:0.010365 13:0.018319 14:0.016156 15:0.014032 16:0.006923 17:0.004803 18:0.001006 19:0.019784 20:0.015842 21:0.01508 22:0.017542 23:0.006171 24:0.007321 25:0.009798 26:0.012793 27:0.013719 28:0.03555 29:0.016617 30:0.011959 31:0.008115 32:0.002387 33:0.001732 34:0.007505 35:0.008845 36:0.025915 37:0.021609 38:0.011302 39:0.011807 40:0.010866 41:0.009422 42:0.010584 43:0.01102 44:0.005928 45:0.003817 46:0.012218 47:0.00889 48:0.005064 49:0.004027 50:0.004675 51:0.005081 52:0.002889 53:0.002136 54:0.002886 55:0.000572 56:0.00142 57:0.002178 58:0.001199 59:0.001699 60:0.00152 61:0.000992 62:0.000568 63:0.00218 
1000 1:0.000181 2:0.001453 3:0.001051 4:0.000859 5:0.001192 6:0.001238 7:0.000699 8:0.000263 9:9.4e-05 10:0.004364 11:0.004325 12:0.004363 13:0.004085 14:0.007655 15:0.005533 16:0.001119 17:0.002713 18:0.00232 19:0.023853 20:0.004377 21:0.002846 22:0.003364 23:0.00876 24:0.008322 25:0.005581 26:0.003546 27:0.008206 28:0.031643 29:0.003783 30:0.001887 31:0.002946 32:0.004547 33:0.006082 34:0.005993 35:0.01056 36:0.015354 37:0.047605 38:0.010646 39:0.002993 40:0.00269 41:0.003009 42:0.0028 43:0.002354 44:0.00555 45:0.012242 46:0.012752 47:0.008054 48:0.007757 49:0.008512 50:0.01123 51:0.020186 52:0.004299 53:0.007809 54:0.003226 55:4.6e-05 56:0.000342 57:0.000834 58:0.001732 59:0.006765 60:0.007303 61:0.001206 62:0.000141 63:1.9e-05 
1000 1:0.00018 2:0.00064 3:0.002592 4:0.00339 5:0.00251 6:0.001168 7:0.000716 8:0.002359 9:0.001322 10:0.001038 11:0.006606 12:0.007307 13:0.00874 14:0.009893 15:0.006391 16:0.006012 17:0.009473 18:0.003621 19:0.009692 20:0.009853 21:0.008365 22:0.004974 23:0.009732 24:0.01031 25:0.008952 26:0.017556 27:0.01081 28:0.029695 29:0.016473 30:0.006672 31:0.012755 32:0.008564 33:0.006645 34:0.002303 35:0.005652 36:0.01336 37:0.03021 38:0.012297 39:0.006375 40:0.00685 41:0.003249 42:0.004768 43:0.005728 44:0.012184 45:0.03036 46:0.003728 47:0.003276 48:0.007193 49:0.007234 50:0.01119 51:0.019158 52:0.016986 53:0.013601 54:0.008559 55:0.000304 56:0.000755 57:0.001098 58:0.001834 59:0.004623 60:0.003396 61:0.002165 62:0.002671 63:0.002337 
1000 1:0.000755 2:0.001094 3:0.001424 4:0.005167 5:0.007051 6:0.008568 7:0.005916 8:0.003413 9:0.001444 10:0.007668 11:0.007868 12:0.007825 13:0.010783 14:0.012744 15:0.020145 16:0.010894 17:0.009749 18:0.011072 19:0.041181 20:0.014426 21:0.004758 22:0.001925 23:0.002471 24:0.003379 25:0.003026 26:0.008089 27:0.021174 28:0.042128 29:0.012779 30:0.006019 31:0.00308 32:0.002438 33:0.000649 34:0.002838 35:0.009028 36:0.018473 37:0.013051 38:0.008806 39:0.005551 40:0.004966 41:0.009631 42:0.009789 43:0.015366 44:0.01925 45:0.021655 46:0.007901 47:0.006026 48:0.006297 49:0.013677 50:0.018209 51:0.018695 52:0.014689 53:0.012371 54:0.013262 55:0.004687 56:0.002389 57:0.003096 58:0.003316 59:0.007782 60:0.009169 61:0.005437 62:0.00574 63:0.010346 
1000 1:0.006521 2:0.007518 3:0.007343 4:0.008266 5:0.007143 6:0.006135 7:0.005492 8:0.003357 9:0.002587 10:0.016569 11:0.013486 12:0.016653 13:0.009166 14:0.0114 15:0.007145 16:0.005935 17:0.008327 18:0.007503 19:0.015011 20:0.013663 21:0.01821 22:0.011759 23:0.009584 24:0.008079 25:0.011092 26:0.006723 27:0.007129 28:0.038499 29:0.020097 30:0.009642 31:0.006028 32:0.006161 33:0.006335 34:0.003056 35:0.003269 36:0.01355 37:0.032616 38:0.012104 39:0.008469 40:0.005762 41:0.007398 42:0.009012 43:0.002473 44:0.006137 45:0.014381 46:0.010369 47:0.006331 48:0.011003 49:0.012579 50:0.012612 51:0.012814 52:0.015204 53:0.026109 54:0.009956 55:0.000946 56:0.000943 57:0.001449 58:0.003845 59:0.008226 60:0.007987 61:0.009505 62:0.005625 63:0.002416 
1000 1:0.004758 2:0.004251 3:0.008589 4:0.011512 5:0.00813 6:0.003423 7:0.004928 8:0.00617 9:0.004575 10:0.01234 11:0.00458 12:0.008369 13:0.011739 14:0.013781 15:0.008797 16:0.011042 17:0.010895 18:0.007891 19:0.009733 20:0.008374 21:0.007833 22:0.010547 23:0.023455 24:0.018983 25:0.009946 26:0.019673 27:0.01029 28:0.029433 29:0.024591 30:0.009734 31:0.006003 32:0.007503 33:0.007024 34:0.006075 35:0.015652 36:0.022594 37:0.029156 38:0.026675 39:0.010112 40:0.006693 41:0.007976 42:0.006906 43:0.006208 44:0.012448 45:0.019194 46:0.012976 47:0.009848 48:0.007712 49:0.008171 50:0.016471 51:0.020646 52:0.016293 53:0.013498 54:0.008875 55:0.003204 56:0.002059 57:0.0021 58:0.00363 59:0.00419 60:0.004501 61:0.010931 62:0.009191 63:0.003501 
374.1974030598559 1:0.005077 2:0.005109 3:0.002201 4:0.001125 5:0.002364 6:0.002719 7:0.002218 8:0.004611 9:0.005149 10:0.005401 11:0.006533 12:0.013899 13:0.011811 14:0.018678 15:0.019104 16:0.02005 17:0.012034 18:0.006571 19:0.012671 20:0.014746 21:0.010981 22:0.013032 23:0.010046 24:0.014307 25:0.02941 26:0.016471 27:0.008473 28:0.020385 29:0.013495 30:0.003329 31:0.002948 32:0.002299 33:0.014725 34:0.027967 35:0.011832 36:0.016458 37:0.020617 38:0.019762 39:0.010509 40:0.009837 41:0.008069 42:0.01208 43:0.018541 44:0.018248 45:0.018743 46:0.00777 47:0.007885 48:0.010617 49:0.019101 50:0.014601 51:0.016755 52:0.015225 53:0.008442 54:0.007451 55:0.004179 56:0.002316 57:0.002099 58:0.003257 59:0.002824 60:0.00319 61:0.00258 62:0.004319 63:0.005985 
1000 1:0.006811 2:0.008953 3:0.002818 4:0.008246 5:0.009675 6:0.003638 7:0.007925 8:0.0082 9:0.007848 10:0.011 11:0.006432 12:0.008071 13:0.01601 14:0.015353 15:0.008265 16:0.012499 17:0.009037 18:0.010014 19:0.015442 20:0.011387 21:0.011982 22:0.014755 23:0.012779 24:0.013336 25:0.01218 26:0.007371 27:0.007775 28:0.028058 29:0.016581 30:0.014842 31:0.00549 32:0.00745 33:0.007644 34:0.008365 35:0.017498 36:0.021964 37:0.040849 38:0.02272 39:0.010524 40:0.003829 41:0.00368 42:0.004342 43:0.003631 44:0.011214 45:0.024218 46:0.018963 47:0.013374 48:0.012819 49:0.017342 50:0.013623 51:0.015114 52:0.011064 53:0.013996 54:0.013282 55:0.003186 56:0.003169 57:0.004109 58:0.007635 59:0.010069 60:0.010325 61:0.005926 62:0.004765 63:0.004292 
1000 1:0.000576 2:0.000704 3:0.000899 4:0.002431 5:0.007528 6:0.005098 7:0.001646 8:0.000412 9:0.000233 10:0.004746 11:0.008498 12:0.011002 13:0.013351 14:0.033458 15:0.018338 16:0.004106 17:0.003025 18:0.003357 19:0.017513 20:0.015046 21:0.010062 22:0.00619 23:0.017093 24:0.018972 25:0.005569 26:0.009546 27:0.007387 28:0.013029 29:0.012011 30:0.002571 31:0.001601 32:0.013447 33:0.010942 34:0.020064 35:0.021837 36:0.006149 37:0.017601 38:0.020457 39:0.009538 40:0.003242 41:0.012128 42:0.015893 43:0.010921 44:0.014864 45:0.007643 46:0.011361 47:0.011564 48:0.013993 49:0.010068 50:0.024373 51:0.017008 52:0.00773 53:0.009116 54:0.004668 55:0.0012 56:0.001834 57:0.003031 58:0.005614 59:0.017667 60:0.018149 61:0.003557 62:0.00167 63:0.000101 
181.6347626691609 1:0.021826 2:0.01626 3:0.011865 4:0.008774 5:0.007047 6:0.007773 7:0.010565 8:0.013193 9:0.012274 10:0.010884 11:0.008606 12:0.009326 13:0.01342 14:0.034278 15:0.032625 16:0.012172 17:0.009793 18:0.007102 19:0.002568 20:0.000626 21:0.00091 22:0.002146 23:0.011689 24:0.010499 25:0.00223 26:0.001717 27:0.002539 28:0.01717 29:0.008567 30:0.013527 31:0.012127 32:0.029811 33:0.031439 34:0.01619 35:0.016771 36:0.014267 37:0.050691 38:0.017636 39:0.022575 40:0.013923 41:0.011683 42:0.014485 43:0.016144 44:0.025635 45:0.023917 46:0.036128 47:0.019881 48:0.018645 49:0.015141 50:0.022436 51:0.020815 52:0.012149 53:0.016737 54:0.017666 55:0.003125 56:0.00347 57:0.002976 58:0.004251 59:0.017204 60:0.013822 61:0.003839 62:0.002344 63:0.002509 
1000 1:0.005233 2:0.001723 3:0.005468 4:0.005746 5:0.009561 6:0.008996 7:0.006572 8:0.005247 9:0.002733 10:0.004256 11:0.00658 12:0.007039 13:0.008891 14:0.02099 15:0.024335 16:0.014665 17:0.004851 18:0.002762 19:0.013775 20:0.00733 21:0.005549 22:0.005556 23:0.007865 24:0.017032 25:0.014931 26:0.010495 27:0.011866 28:0.02407 29:0.01228 30:0.010165 31:0.010842 32:0.017108 33:0.021338 34:0.009887 35:0.00827 36:0.010367 37:0.01598 38:0.009764 39:0.007892 40:0.023099 41:0.026672 42:0.027594 43:0.016355 44:0.011114 45:0.016763 46:0.025198 47:0.014154 48:0.007061 49:0.010371 50:0.017469 51:0.021102 52:0.006822 53:0.003917 54:0.009714 55:0.013854 56:0.006386 57:0.003928 58:0.002295 59:0.000977 60:0.002628 61:0.003108 62:0.006551 63:0.007531 
1000 1:0.003489 2:0.005787 3:0.004658 4:0.008472 5:0.009068 6:0.010456 7:0.008657 8:0.004947 9:0.004973 10:0.008114 11:0.007591 12:0.010273 13:0.010943 14:0.010399 15:0.013435 16:0.010034 17:0.007987 18:0.007049 19:0.010811 20:0.005576 21:0.01258 22:0.011747 23:0.010826 24:0.010182 25:0.006876 26:0.00673 27:0.008452 28:0.017004 29:0.012219 30:0.01799 31:0.024916 32:0.020509 33:0.023591 34:0.021496 35:0.017561 36:0.014376 37:0.040656 38:0.023051 39:0.014891 40:0.00909 41:0.010808 42:0.015504 43:0.009428 44:0.021027 45:0.031368 46:0.043565 47:0.015511 48:0.005311 49:0.003645 50:0.00681 51:0.008231 52:0.012863 53:0.027399 54:0.037157 55:0.014396 56:0.008334 57:0.00288 58:0.003677 59:0.011869 60:0.014426 61:0.0177 62:0.015579 63:0.013189 
51.94737924622461 1:0.004253 2:0.00304 3:0.003794 4:0.00302 5:0.007334 6:0.010832 7:0.008854 8:0.005232 9:0.002164 10:0.005322 11:0.007679 12:0.012036 13:0.01438 14:0.014486 15:0.015768 16:0.017011 17:0.011433 18:0.006047 19:0.012427 20:0.03499 21:0.026553 22:0.023458 23:0.01214 24:0.009459 25:0.012851 26:0.007032 27:0.008423 28:0.025356 29:0.033886 30:0.012972 31:0.012713 32:0.012 33:0.007529 34:0.006202 35:0.004135 36:0.006674 37:0.019965 38:0.018491 39:0.012599 40:0.01971 41:0.011872 42:0.008292 43:0.018798 44:0.012588 45:0.016033 46:0.006259 47:0.009657 48:0.012622 49:0.020312 50:0.021255 51:0.017231 52:0.015452 53:0.009738 54:0.008295 55:0.00218 56:0.005278 57:0.003866 58:0.008435 59:0.010816 60:0.007697 61:0.005115 62:0.003895 63:0.003599 
1000 1:0.003203 2:0.005702 3:0.006295 4:0.008833 5:0.008695 6:0.006793 7:0.006896 8:0.005413 9:0.003231 10:0.009982 11:0.009924 12:0.011332 13:0.011975 14:0.014682 15:0.014627 16:0.012693 17:0.008553 18:0.005935 19:0.018466 20:0.015195 21:0.018173 22:0.016383 23:0.017494 24:0.023248 25:0.011785 26:0.006855 27:0.010244 28:0.028207 29:0.023713 30:0.02495 31:0.015932 32:0.012613 33:0.008419 34:0.005715 35:0.012214 36:0.013884 37:0.015549 38:0.012209 39:0.018922 40:0.020864 41:0.024959 42:0.024519 43:0.014352 44:0.020834 45:0.009974 46:0.010059 47:0.011113 48:0.009734 49:0.012463 50:0.018377 51:0.017812 52:0.019667 53:0.013109 54:0.010263 55:0.002811 56:0.006654 57:0.004418 58:0.00456 59:0.008005 60:0.01038 61:0.011702 62:0.008539 63:0.003658 
1000 1:0.000429 2:0.000606 3:0.00084 4:0.00448 5:0.056048 6:0.052025 7:0.001798 8:0.000598 9:0.000389 10:0.00851 11:0.01829 12:0.012151 13:0.010336 14:0.039169 15:0.0287 16:0.003797 17:0.005277 18:0.006318 19:0.016893 20:0.029762 21:0.008524 22:0.004611 23:0.005508 24:0.008177 25:0.006514 26:0.006364 27:0.009991 28:0.018399 29:0.026406 30:0.005485 31:0.002377 32:0.007017 33:0.009845 34:0.015204 35:0.013144 36:0.013415 37:0.017964 38:0.03504 39:0.007394 40:0.003341 41:0.005658 42:0.005911 43:0.007013 44:0.007538 45:0.010682 46:0.011308 47:0.028683 48:0.013419 49:0.010289 50:0.020762 51:0.018234 52:0.006035 53:0.006043 54:0.005456 55:0.00184 56:0.00234 57:0.001983 58:0.00654 59:0.03734 60:0.031807 61:0.004265 62:0.001899 63:0.000984 
1000 1:0.000859 2:0.000296 3:0.000759 4:0.001345 5:0.002282 6:0.002553 7:0.001489 8:0.000554 9:0.000778 10:0.025051 11:0.004732 12:0.006784 13:0.005049 14:0.004604 15:0.005691 16:0.006607 17:0.004487 18:0.006194 19:0.035188 20:0.00451 21:0.001456 22:0.005946 23:0.006273 24:0.005048 25:0.002023 26:0.003889 27:0.005629 28:0.043997 29:0.006534 30:0.001123 31:0.001275 32:0.000435 33:0.000995 34:0.00217 35:0.001214 36:0.003911 37:0.041751 38:0.00808 39:0.002447 40:0.00079 41:9.6e-05 42:0.001537 43:0.001436 44:0.000775 45:0.005637 46:0.013786 47:0.007814 48:0.003855 49:0.003395 50:0.004578 51:0.005608 52:0.004989 53:0.004182 54:0.008175 55:0.000295 56:0.000425 57:0.000244 58:0.000336 59:0.001344 60:0.00173 61:0.000503 62:0.00024 63:0.00025 
1000 1:0.022935 2:0.012123 3:0.004003 4:0.002929 5:0.003215 6:0.003021 7:0.00339 8:0.005931 9:0.012726 10:0.013316 11:0.010988 12:0.012862 13:0.016303 14:0.021375 15:0.0221 16:0.014326 17:0.01668 18:0.010557 19:0.021582 20:0.014999 21:0.011911 22:0.010069 23:0.010689 24:0.013806 25:0.011774 26:0.015307 27:0.016401 28:0.048796 29:0.014813 30:0.003323 31:0.001604 32:0.00578 33:0.00522 34:0.002551 35:0.00372 36:0.015413 37:0.049262 38:0.016084 39:0.006248 40:0.001999 41:0.004052 42:0.0037 43:0.002235 44:0.004963 45:0.015459 46:0.015536 47:0.015264 48:0.019236 49:0.011691 50:0.013483 51:0.014878 52:0.014517 53:0.018091 54:0.011087 55:0.002844 56:0.004298 57:0.013811 58:0.005955 59:0.012732 60:0.020668 61:0.015308 62:0.010783 63:0.004342 
1000 1:0.013402 2:0.004423 3:0.000418 4:0.000383 5:0.000601 6:0.000424 7:0.000466 8:0.000468 9:0.002822 10:0.020164 11:0.006874 12:0.003875 13:0.012537 14:0.01845 15:0.016392 16:0.006775 17:0.002811 18:0.006858 19:0.034691 20:0.011241 21:0.010377 22:0.011055 23:0.006531 24:0.011056 25:0.007657 26:0.004968 27:0.01132 28:0.061795 29:0.014657 30:0.003947 31:0.002697 32:0.000371 33:0.001111 34:0.002917 35:0.003531 36:0.013895 37:0.031434 38:0.015386 39:0.011303 40:0.009158 41:0.00768 42:0.00693 43:0.007448 44:0.01351 45:0.013144 46:0.011951 47:0.008809 48:0.00634 49:0.009526 50:0.018964 51:0.023421 52:0.021311 53:0.01369 54:0.005063 55:0.009409 56:0.00324 57:0.000799 58:0.001154 59:0.004294 60:0.006258 61:0.00316 62:0.001776 63:0.003551 
1000 1:0.000569 2:8.5e-05 3:0.002535 4:0.004952 5:0.021047 6:0.028199 7:0.007576 8:0.001996 9:0.000617 10:0.022341 11:0.005037 12:0.00832 13:0.008729 14:0.019931 15:0.019238 16:0.012101 17:0.001329 18:0.007603 19:0.039965 20:0.007861 21:0.003917 22:0.004527 23:0.008576 24:0.001597 25:0.001813 26:0.000284 27:0.003785 28:0.043137 29:0.004572 30:0.000903 31:0.000838 32:0.000759 33:0.000305 34:0.000193 35:0.00014 36:0.002836 37:0.040039 38:0.00569 39:0.000268 40:4.1e-05 41:0.00016 42:0.000237 43:1.7e-05 44:0.000161 45:0.005072 46:0.022181 47:0.004335 48:0.005115 49:0.001207 50:0.011029 51:0.012667 52:0.000619 53:0.004674 54:0.004484 55:0.002213 56:0.001156 57:0.001303 58:0.000259 59:0.004353 60:0.004155 61:0.000189 62:0.001044 63:0.001076 
1000 1:0.000532 2:0.00072 3:0.000342 4:0.000356 5:0.000215 6:0.000302 7:9.2e-05 8:0.000117 9:7.8e-05 10:0.000274 11:0.001358 12:0.00261 13:0.002969 14:0.005873 15:0.0062 16:0.003508 17:0.002353 18:0.002375 19:0.002555 20:0.005211 21:0.010251 22:0.017422 23:0.009982 24:0.009682 25:0.015993 26:0.015369 27:0.006944 28:0.024714 29:0.014062 30:0.012797 31:0.009554 32:0.006662 33:0.007741 34:0.010361 35:0.014677 36:0.016853 37:0.029373 38:0.011465 39:0.012461 40:0.008176 41:0.006956 42:0.006213 43:0.008158 44:0.011032 45:0.016135 46:0.004389 47:0.002609 48:0.003819 49:0.011004 50:0.016044 51:0.012602 52:0.01145 53:0.00342 54:0.002037 55:0.000988 56:0.000561 57:0.000301 58:0.000255 59:0.00116 60:0.000834 61:0.000206 62:2.3e-05 63:0.000109 
1000 1:0.000361 2:0.000646 3:0.000469 4:0.000875 5:0.004745 6:0.003756 7:0.000351 8:0.000321 9:0.000684 10:0.00847 11:0.008959 12:0.007034 13:0.010974 14:0.026499 15:0.019677 16:0.003959 17:0.005777 18:0.007499 19:0.024221 20:0.020659 21:0.01043 22:0.009122 23:0.011844 24:0.007871 25:0.003599 26:0.00832 27:0.007431 28:0.035393 29:0.020242 30:0.01943 31:0.001436 32:0.000334 33:0.000263 34:0.000148 35:0.000241 36:0.003585 37:0.029896 38:0.02671 39:0.007419 40:0.00129 41:0.001428 42:0.002522 43:0.002222 44:0.006258 45:0.009338 46:0.008472 47:0.006201 48:0.004381 49:0.004983 50:0.009095 51:0.013437 52:0.007183 53:0.008832 54:0.008744 55:0.004033 56:0.002949 57:0.001564 58:0.000905 59:0.001617 60:0.001242 61:0.001018 62:0.0031 63:0.004934 
1000 1:0.000472 2:0.001667 3:0.003497 4:0.001055 5:0.006862 6:0.004532 7:0.000166 8:0.000258 9:0.000317 10:0.003799 11:0.015629 12:0.008103 13:0.008799 14:0.03354 15:0.023839 16:0.001549 17:0.002012 18:0.003953 19:0.009976 20:0.023563 21:0.010437 22:0.006122 23:0.022672 24:0.021679 25:0.011044 26:0.004553 27:0.004083 28:0.014394 29:0.021771 30:0.005686 31:0.009185 32:0.014021 33:0.014388 34:0.007048 35:0.008943 36:0.005831 37:0.012101 38:0.023757 39:0.013975 40:0.00782 41:0.011656 42:0.008557 43:0.00448 44:0.006193 45:0.002803 46:0.006655 47:0.016215 48:0.015823 49:0.014324 50:0.015859 51:0.013034 52:0.011657 53:0.007546 54:0.004994 55:0.001282 56:0.001917 57:0.001967 58:0.004432 59:0.011295 60:0.009683 61:0.003398 62:0.00046 63:0.000953 
1000 1:1.5e-05 2:1.8e-05 3:3.8e-05 4:0.000532 5:0.064846 6:0.061664 7:0.00058 8:6.1e-05 9:1e-05 10:0.001186 11:0.00177 12:0.004309 13:0.00644 14:0.031127 15:0.029978 16:0.006284 17:0.00511 18:0.001838 19:0.010081 20:0.014826 21:0.012603 22:0.005803 23:0.003802 24:0.003325 25:0.005352 26:0.015724 27:0.013057 28:0.027786 29:0.016828 30:0.015362 31:0.006208 32:0.003049 33:0.001551 34:0.001045 35:0.007851 36:0.019459 37:0.016121 38:0.012534 39:0.014344 40:0.006659 41:0.011945 42:0.008645 43:0.003787 44:0.011472 45:0.016182 46:0.002839 47:0.002185 48:0.006154 49:0.004776 50:0.022608 51:0.021997 52:0.005358 53:0.007942 54:0.003467 55:6.5e-05 56:0.000161 57:0.000392 58:0.000446 59:0.065545 60:0.058181 61:0.000952 62:0.000599 63:8.5e-05 
839.2394750228843 1:2.4e-05 2:2.6e-05 3:0.00017 4:0.000924 5:0.063666 6:0.065503 7:0.000651 8:0.000144 9:4.8e-05 10:0.002085 11:0.002111 12:0.006645 13:0.010561 14:0.023023 15:0.022603 16:0.007723 17:0.005041 18:0.001973 19:0.012541 20:0.016321 21:0.018029 22:0.007107 23:0.00539 24:0.00149 25:0.004377 26:0.012319 27:0.013137 28:0.021637 29:0.027371 30:0.018966 31:0.010602 32:0.005203 33:0.001712 34:0.001179 35:0.004948 36:0.012059 37:0.014732 38:0.015513 39:0.017681 40:0.010011 41:0.01102 42:0.008524 43:0.00293 44:0.007434 45:0.011419 46:0.002637 47:0.003158 48:0.008725 49:0.006844 50:0.019798 51:0.020694 52:0.004568 53:0.006288 54:0.002488 55:0.0001 56:0.000172 57:0.000611 58:0.000733 59:0.060041 60:0.064647 61:0.000693 62:0.000445 63:0.000216 
1000 1:0.001247 2:0.000735 3:0.000614 4:0.001855 5:0.04414 6:0.053099 7:0.000982 8:0.000549 9:0.000786 10:0.004672 11:0.003076 12:0.003099 13:0.005676 14:0.037144 15:0.04446 16:0.007091 17:0.004421 18:0.005136 19:0.03045 20:0.010284 21:0.007026 22:0.009024 23:0.015704 24:0.020676 25:0.010771 26:0.005495 27:0.014995 28:0.035529 29:0.012333 30:0.010463 31:0.01261 32:0.019268 33:0.020895 34:0.012767 35:0.007667 36:0.015744 37:0.012492 38:0.004726 39:0.005871 40:0.006471 41:0.031701 42:0.034886 43:0.007226 44:0.005992 45:0.005321 46:0.003157 47:0.001209 48:0.000959 49:0.001682 50:0.036417 51:0.038383 52:0.002273 53:0.001521 54:0.002562 55:0.000455 56:0.000365 57:0.000425 58:0.003776 59:0.049891 60:0.050808 61:0.000923 62:0.00163 63:0.00111 
1000 1:0.002356 2:0.002275 3:0.006829 4:0.009215 5:0.030743 6:0.02688 7:0.006106 8:0.005817 9:0.003781 10:0.003551 11:0.002911 12:0.003979 13:0.003695 14:0.030445 15:0.025824 16:0.003222 17:0.001265 18:0.002599 19:0.012902 20:0.01787 21:0.018128 22:0.013453 23:0.040067 24:0.025995 25:0.008603 26:0.006244 27:0.009065 28:0.015674 29:0.0392 30:0.034649 31:0.009947 32:0.012069 33:0.006148 34:0.004383 35:0.001538 36:0.012291 37:0.016135 38:0.028872 39:0.0274 40:0.007749 41:0.018521 42:0.015498 43:0.003511 44:0.002866 45:0.007853 46:0.003892 47:0.006748 48:0.012086 49:0.004555 50:0.014738 51:0.009314 52:0.001077 53:0.002018 54:0.00113 55:0.000551 56:0.000513 57:0.00076 58:0.000649 59:0.02237 60:0.019268 61:0.000636 62:0.000221 63:2.7e-05 
1000 1:1.3e-05 2:4e-06 3:4.8e-05 4:0.000325 5:0.001704 6:0.001287 7:0.000115 8:0.000124 9:7.9e-05 10:0.001643 11:0.001319 12:0.00447 13:0.005665 14:0.039569 15:0.036173 16:0.005696 17:0.00592 18:0.001671 19:0.001719 20:0.005068 21:0.011686 22:0.014295 23:0.014821 24:0.015215 25:0.020865 26:0.023494 27:0.004131 28:0.005385 29:0.004487 30:0.006101 31:0.011727 32:0.003218 33:0.005345 34:0.015011 35:0.020626 36:0.009124 37:0.012068 38:0.002906 39:0.002452 40:0.003761 41:0.016502 42:0.015642 43:0.010765 44:0.015449 45:0.011555 46:0.003016 47:0.00312 48:0.003869 49:0.009684 50:0.036581 51:0.052319 52:0.014927 53:0.002871 54:0.003852 55:0.000994 56:0.001109 57:0.002259 58:0.009315 59:0.020266 60:0.021642 61:0.009605 62:0.002716 63:0.001682 
1000 1:0.008777 2:0.007788 3:0.005509 4:0.004445 5:0.007233 6:0.009192 7:0.006477 8:0.006946 9:0.008346 10:0.009167 11:0.010275 12:0.0148 13:0.011124 14:0.024312 15:0.021207 16:0.009196 17:0.010564 18:0.012257 19:0.023439 20:0.020291 21:0.025118 22:0.005575 23:0.010004 24:0.007426 25:0.006825 26:0.014425 27:0.021684 28:0.020301 29:0.024575 30:0.015157 31:0.005022 32:0.01001 33:0.007336 34:0.010613 35:0.010784 36:0.016286 37:0.0118 38:0.015822 39:0.020005 40:0.006902 41:0.008446 42:0.014893 43:0.0148 44:0.013719 45:0.020203 46:0.004133 47:0.006064 48:0.00554 49:0.004582 50:0.017064 51:0.015294 52:0.006809 53:0.005689 54:0.006643 55:0.001657 56:0.001226 57:0.000505 58:0.000537 59:0.001231 60:0.001001 61:0.000509 62:0.001199 63:0.002473 
42.89703278957533 1:1e-06 2:1e-06 3:2e-06 4:0.000143 5:0.068786 6:0.057558 7:5.7e-05 8:3e-06 9:1e-06 10:0.00096 11:0.000777 12:0.00079 13:0.004253 14:0.0754 15:0.061088 16:0.003058 17:0.000919 18:0.001104 19:0.017795 20:0.010479 21:0.009152 22:0.009978 23:0.018046 24:0.017651 25:0.013358 26:0.011972 27:0.014877 28:0.032868 29:0.019749 30:0.014948 31:0.00778 32:0.009391 33:0.010163 34:0.015111 35:0.019113 36:0.017651 37:0.013328 38:0.010017 39:0.010611 40:0.009933 41:0.021198 42:0.021121 43:0.009631 44:0.011691 45:0.009458 46:0.000888 47:0.000755 48:0.000863 49:0.002573 50:0.039886 51:0.037015 52:0.002196 53:0.001833 54:0.00081 55:0.000166 56:0.00032 57:0.00035 58:0.000712 59:0.055185 60:0.053211 61:0.001142 62:0.000743 63:0.000501 
1000 1:0.000302 2:0.000854 3:0.002808 4:0.002923 5:0.002208 6:0.004894 7:0.002665 8:0.001057 9:0.000416 10:0.001865 11:0.003915 12:0.005646 13:0.008029 14:0.013753 15:0.011039 16:0.009706 17:0.005919 18:0.002408 19:0.007461 20:0.00526 21:0.011708 22:0.016652 23:0.020185 24:0.021059 25:0.02304 26:0.020273 27:0.009744 28:0.027621 29:0.013042 30:0.009532 31:0.007189 32:0.008261 33:0.007816 34:0.012136 35:0.013084 36:0.019671 37:0.013798 38:0.012165 39:0.01245 40:0.018312 41:0.016701 42:0.014855 43:0.025477 44:0.012896 45:0.00992 46:0.001908 47:0.002417 48:0.003743 49:0.012269 50:0.022745 51:0.012797 52:0.016368 53:0.00388 54:0.002158 55:0.00202 56:0.002613 57:0.000955 58:0.001205 59:0.002282 60:0.00105 61:0.000806 62:0.002005 63:0.001643 
1000 1:0.001767 2:0.000746 3:0.001097 4:0.000863 5:0.002828 6:0.002519 7:0.001575 8:0.001927 9:0.001012 10:0.002747 11:0.00186 12:0.001364 13:0.002155 14:0.00464 15:0.005184 16:0.003527 17:0.002299 18:0.001166 19:0.003816 20:0.009948 21:0.008721 22:0.010599 23:0.024355 24:0.023716 25:0.017297 26:0.013731 27:0.002585 28:0.027632 29:0.022474 30:0.008658 31:0.00801 32:0.009442 33:0.014305 34:0.011771 35:0.01633 36:0.018143 37:0.034232 38:0.01627 39:0.005788 40:0.004865 41:0.006859 42:0.010082 43:0.012976 44:0.020213 45:0.022593 46:0.005229 47:0.003314 48:0.006238 49:0.010939 50:0.029566 51:0.027414 52:0.00982 53:0.008471 54:0.005364 55:0.001459 56:0.001153 57:0.000731 58:0.000754 59:0.003092 60:0.003364 61:0.000686 62:0.000428 63:0.000298 
1000 1:0.000321 2:0.000113 3:0.000364 4:4.5e-05 5:0.000564 6:0.000698 7:0.000581 8:0.000545 9:0.000415 10:0.003866 11:0.001748 12:0.004608 13:0.00345 14:0.010505 15:0.011654 16:0.004702 17:0.002331 18:0.00314 19:0.015813 20:0.016234 21:0.020279 22:0.017574 23:0.016485 24:0.022016 25:0.009641 26:0.011871 27:0.01287 28:0.056162 29:0.031259 30:0.014343 31:0.005641 32:0.003285 33:0.00377 34:0.005154 35:0.016071 36:0.01445 37:0.015453 38:0.012361 39:0.012382 40:0.013988 41:0.010952 42:0.013384 43:0.012188 44:0.011481 45:0.01005 46:0.000888 47:0.001124 48:0.00338 49:0.012585 50:0.017535 51:0.018362 52:0.012098 53:0.004443 54:0.00193 55:0.001067 56:0.000653 57:0.000344 58:0.004608 59:0.010599 60:0.012061 61:0.004333 62:0.001442 63:0.000564 
1000 1:8.2e-05 2:6.5e-05 3:0.000273 4:0.003699 5:0.026361 6:0.036253 7:0.005159 8:0.000414 9:0.000109 10:0.003905 11:0.004292 12:0.004691 13:0.011515 14:0.015141 15:0.011024 16:0.009301 17:0.009623 18:0.006714 19:0.008327 20:0.011178 21:0.015629 22:0.009854 23:0.003973 24:0.007332 25:0.013544 26:0.014789 27:0.011472 28:0.013923 29:0.012396 30:0.019793 31:0.006539 32:0.005013 33:0.009646 34:0.008946 35:0.012306 36:0.01159 37:0.013723 38:0.015215 39:0.029751 40:0.023533 41:0.008865 42:0.00489 43:0.007879 44:0.015958 45:0.011018 46:0.006054 47:0.003131 48:0.004591 49:0.016323 50:0.022392 51:0.018534 52:0.004263 53:0.002284 54:0.002064 55:0.000223 56:0.000605 57:0.000161 58:0.001149 59:0.018362 60:0.023195 61:0.00239 62:7e-06 63:3.1e-05 
1000 1:0.000335 2:0.000132 3:0.000301 4:0.002233 5:0.011444 6:0.009784 7:0.001604 8:0.00039 9:0.000331 10:0.006925 11:0.005228 12:0.009616 13:0.01486 14:0.025703 15:0.030845 16:0.007419 17:0.007218 18:0.007283 19:0.023357 20:0.019983 21:0.019225 22:0.008703 23:0.009364 24:0.00613 25:0.00797 26:0.007596 27:0.010071 28:0.022866 29:0.017674 30:0.01244 31:0.004821 32:0.006949 33:0.005548 34:0.005124 35:0.002578 36:0.009421 37:0.015577 38:0.024594 39:0.019864 40:0.00645 41:0.007692 42:0.008141 43:0.004236 44:0.00723 45:0.013015 46:0.00754 47:0.00806 48:0.011937 49:0.015105 50:0.018938 51:0.014988 52:0.006469 53:0.004382 54:0.006257 55:0.000857 56:0.000942 57:0.002912 58:0.006565 59:0.021213 60:0.016997 61:0.005616 62:0.000807 63:0.001526 
1000 1:9.4e-05 2:1.5e-05 3:8.9e-05 4:0.001886 5:0.025454 6:0.026076 7:0.002768 8:0.000892 9:0.000339 10:0.0104 11:0.004072 12:0.004344 13:0.011091 14:0.035354 15:0.040005 16:0.01041 17:0.006973 18:0.004999 19:0.038166 20:0.022248 21:0.00799 22:0.004808 23:0.004882 24:0.006845 25:0.007713 26:0.006246 27:0.010611 28:0.028518 29:0.014671 30:0.002918 31:0.001685 32:0.003763 33:0.004538 34:0.003577 35:0.004331 36:0.008511 37:0.019776 38:0.007899 39:0.009271 40:0.012022 41:0.005419 42:0.003394 43:0.006854 44:0.010256 45:0.014037 46:0.002798 47:0.003453 48:0.009402 49:0.02136 50:0.02229 51:0.017294 52:0.009945 53:0.006591 54:0.005795 55:0.000108 56:0.000495 57:0.001512 58:0.004117 59:0.022016 60:0.020887 61:0.002165 62:0.001808 63:0.000415 
463.1782249076266 1:0.0005 2:0.001587 3:0.007316 4:0.007558 5:0.006346 6:0.007598 7:0.002835 8:0.000951 9:0.000575 10:0.004849 11:0.006612 12:0.023582 13:0.02683 14:0.025842 15:0.032635 16:0.01566 17:0.008412 18:0.002867 19:0.01413 20:0.017176 21:0.023584 22:0.015983 23:0.004907 24:0.006211 25:0.007687 26:0.007963 27:0.007749 28:0.014831 29:0.0215 30:0.009823 31:0.004764 32:0.007647 33:0.007803 34:0.007702 35:0.010217 36:0.011589 37:0.013011 38:0.021682 39:0.015572 40:0.012671 41:0.0087 42:0.008587 43:0.005378 44:0.014079 45:0.013399 46:0.004174 47:0.00742 48:0.013996 49:0.02225 50:0.021782 51:0.020196 52:0.014565 53:0.007566 54:0.00517 55:0.000757 56:0.001182 57:0.001173 58:0.002911 59:0.009403 60:0.006988 61:0.001792 62:0.000578 63:0.000422 
1000 1:0.000108 2:0.000885 3:0.001727 4:0.001625 5:0.00467 6:0.00408 7:0.000786 8:0.000354 9:0.0003 10:0.003199 11:0.00435 12:0.011482 13:0.018636 14:0.030867 15:0.028995 16:0.010837 17:0.002136 18:0.001848 19:0.007593 20:0.013039 21:0.017242 22:0.01731 23:0.007919 24:0.007894 25:0.007864 26:0.003368 27:0.003285 28:0.016086 29:0.019739 30:0.010001 31:0.008773 32:0.005918 33:0.007329 34:0.01628 35:0.015932 36:0.01106 37:0.013616 38:0.012768 39:0.015575 40:0.014823 41:0.009918 42:0.012406 43:0.009115 44:0.012878 45:0.012739 46:0.005172 47:0.003807 48:0.006687 49:0.015374 50:0.021034 51:0.023588 52:0.018444 53:0.007154 54:0.003039 55:0.000218 56:0.000283 57:0.00061 58:0.002523 59:0.012267 60:0.012628 61:0.003179 62:0.000235 63:0.000244 
656.4218521119673 1:0.002551 2:0.001684 3:0.001491 4:0.000989 5:0.006112 6:0.00799 7:0.001571 8:0.001369 9:0.002566 10:0.00902 11:0.006681 12:0.006844 13:0.004679 14:0.033388 15:0.041536 16:0.007925 17:0.00377 18:0.005342 19:0.025689 20:0.013152 21:0.008657 22:0.007759 23:0.015515 24:0.023867 25:0.006263 26:0.004338 27:0.010952 28:0.021152 29:0.015909 30:0.009901 31:0.005875 32:0.015593 33:0.020076 34:0.009639 35:0.006853 36:0.013377 37:0.014813 38:0.016564 39:0.012588 40:0.008979 41:0.02246 42:0.025092 43:0.006266 44:0.008731 45:0.013112 46:0.008915 47:0.008006 48:0.008016 49:0.008224 50:0.039489 51:0.046056 52:0.007877 53:0.00796 54:0.007298 55:0.000639 56:0.001393 57:0.001959 58:0.001603 59:0.008065 60:0.013093 61:0.002029 62:0.002203 63:0.001233 
1000 1:5.3e-05 2:0.00088 3:0.001097 4:0.001066 5:0.001663 6:0.001853 7:0.001009 8:0.000132 9:1.1e-05 10:0.00159 11:0.001922 12:0.005475 13:0.008117 14:0.00481 15:0.006085 16:0.006823 17:0.003911 18:0.001303 19:0.004587 20:0.003193 21:0.005917 22:0.004661 23:0.02048 24:0.021525 25:0.011323 26:0.010011 27:0.003406 28:0.025227 29:0.015658 30:0.011093 31:0.00405 32:0.010598 33:0.011889 34:0.007035 35:0.011953 36:0.017481 37:0.021451 38:0.010826 39:0.012894 40:0.001552 41:0.00213 42:0.001175 43:0.003587 44:0.010542 45:0.011975 46:0.010896 47:0.007663 48:0.010104 49:0.004471 50:0.01508 51:0.014741 52:0.00329 53:0.009056 54:0.012363 55:0.001054 56:0.001945 57:0.001609 58:0.002837 59:0.009486 60:0.008003 61:0.002317 62:0.001435 63:0.003165 
546.2563317569826 1:8.8e-05 2:0.000327 3:0.000461 4:0.000777 5:0.00316 6:0.002399 7:0.000533 8:0.000336 9:0.000608 10:0.005681 11:0.004225 12:0.000414 13:0.003588 14:0.022734 15:0.017205 16:0.002744 17:0.00095 18:0.003019 19:0.023693 20:0.006491 21:0.002198 22:0.006088 23:0.022922 24:0.027735 25:0.005444 26:0.001541 27:0.00452 28:0.049836 29:0.010238 30:0.00108 31:0.003498 32:0.008271 33:0.010964 34:0.002962 35:0.001203 36:0.007998 37:0.035401 38:0.00974 39:0.005557 40:0.004811 41:0.018066 42:0.013873 43:0.003294 44:0.00995 45:0.007551 46:0.011532 47:0.006135 48:0.010141 49:0.005091 50:0.027382 51:0.031068 52:0.006333 53:0.011807 54:0.005659 55:0.000879 56:0.000819 57:0.001545 58:0.001399 59:0.010421 60:0.012232 61:0.002499 62:0.001086 63:0.000769 
1000 1:0.000408 2:0.001081 3:0.002462 4:0.003149 5:0.001827 6:0.001953 7:0.002139 8:0.000561 9:0.000304 10:0.000961 11:0.001673 12:0.003957 13:0.010467 14:0.012875 15:0.015236 16:0.004144 17:0.004941 18:0.001434 19:0.00633 20:0.007753 21:0.022285 22:0.014247 23:0.005832 24:0.007556 25:0.013414 26:0.014356 27:0.007695 28:0.040197 29:0.021606 30:0.01195 31:0.003648 32:0.002871 33:0.001825 34:0.00539 35:0.008522 36:0.015898 37:0.010751 38:0.014284 39:0.018951 40:0.014266 41:0.010259 42:0.005376 43:0.014548 44:0.014722 45:0.011657 46:0.000862 47:0.003382 48:0.007998 49:0.016278 50:0.013779 51:0.014255 52:0.011295 53:0.00953 54:0.002011 55:0.000629 56:0.000672 57:0.000434 58:0.002214 59:0.003091 60:0.003314 61:0.001508 62:0.000665 63:0.000604 
1000 1:0.019216 2:0.007742 3:0.007979 4:0.003369 5:0.005123 6:0.00589 7:0.006647 8:0.007568 9:0.01022 10:0.026623 11:0.014538 12:0.010542 13:0.00486 14:0.004088 15:0.006399 16:0.008624 17:0.012636 18:0.024634 19:0.03761 20:0.024696 21:0.006083 22:0.001913 23:0.000983 24:0.002375 25:0.004742 26:0.00634 27:0.022191 28:0.03105 29:0.020184 30:0.011024 31:0.003521 32:0.000794 33:0.001673 34:0.003045 35:0.007942 36:0.022848 37:0.029529 38:0.018267 39:0.007777 40:0.005888 41:0.00372 42:0.004581 43:0.007384 44:0.013372 45:0.014894 46:0.008867 47:0.005223 48:0.007049 49:0.010708 50:0.016147 51:0.019416 52:0.013297 53:0.007335 54:0.007672 55:0.001214 56:0.002327 57:0.002127 58:0.003281 59:0.004267 60:0.004094 61:0.0025 62:0.002255 63:0.002573 
1000 1:0.02809 2:0.011597 3:0.002675 4:0.003934 5:0.010549 6:0.005402 7:0.001549 8:0.006293 9:0.010187 10:0.064436 11:0.019783 12:0.00278 13:0.002572 14:0.007208 15:0.004509 16:0.003181 17:0.006642 18:0.028475 19:0.074184 20:0.014522 21:0.005159 22:0.004008 23:0.008637 24:0.008347 25:0.003383 26:0.006098 27:0.020676 28:0.071768 29:0.014196 30:0.002252 31:0.001747 32:0.00586 33:0.003325 34:0.002282 35:0.005025 36:0.024578 37:0.053533 38:0.012732 39:0.004715 40:0.003919 41:0.016292 42:0.011667 43:0.004071 44:0.004947 45:0.020624 46:0.017174 47:0.005164 48:0.004649 49:0.003477 50:0.01489 51:0.010443 52:0.003813 53:0.00197 54:0.007671 55:0.000463 56:0.000514 57:0.000417 58:0.001191 59:0.02811 60:0.012525 61:0.000395 62:0.000152 63:0.000337 
603.5339137095472 1:0.003648 2:0.003174 3:0.005625 4:0.003249 5:0.007223 6:0.005719 7:0.002219 8:0.001365 9:0.002735 10:0.005762 11:0.005151 12:0.011338 13:0.015634 14:0.02433 15:0.008565 16:0.008996 17:0.006628 18:0.002214 19:0.041391 20:0.013492 21:0.013231 22:0.004586 23:0.007019 24:0.008622 25:0.007007 26:0.007393 27:0.012244 28:0.052064 29:0.012547 30:0.007493 31:0.003854 32:0.004456 33:0.002238 34:0.000505 35:0.001774 36:0.006331 37:0.045351 38:0.007691 39:0.005105 40:0.003675 41:0.001805 42:0.00348 43:0.002602 44:0.001094 45:0.006255 46:0.010867 47:0.006595 48:0.000763 49:0.011239 50:0.013248 51:0.009674 52:0.004958 53:0.004155 54:0.007847 55:0.000238 56:0.000182 57:3.3e-05 58:0.00509 59:0.021728 60:0.004954 61:0.001282 62:0.000701 63:0.000736 
1000 1:0.001046 2:0.001496 3:0.001015 4:0.000797 5:0.011385 6:0.011551 7:0.000742 8:0.000477 9:0.000434 10:0.005843 11:0.005097 12:0.006144 13:0.003825 14:0.057295 15:0.05526 16:0.005974 17:0.005727 18:0.002901 19:0.017129 20:0.00764 21:0.00971 22:0.004542 23:0.034614 24:0.029904 25:0.004233 26:0.006717 27:0.009862 28:0.019135 29:0.012177 30:0.013433 31:0.00735 32:0.026175 33:0.02372 34:0.004874 35:0.007834 36:0.013115 37:0.022028 38:0.010215 39:0.010384 40:0.002238 41:0.023337 42:0.023425 43:0.003121 44:0.007339 45:0.010451 46:0.018716 47:0.008448 48:0.009213 49:0.006114 50:0.036269 51:0.033417 52:0.006354 53:0.00633 54:0.011652 55:0.00177 56:0.001627 57:0.001376 58:0.002645 59:0.021169 60:0.019866 61:0.003243 62:0.000637 63:0.001352 
1000 1:0.000555 2:0.000949 3:0.000287 4:0.001598 5:0.003332 6:0.004128 7:0.002348 8:0.001267 9:0.000315 10:0.005583 11:0.004756 12:0.006571 13:0.016474 14:0.025845 15:0.036279 16:0.018653 17:0.005714 18:0.004614 19:0.007925 20:0.012075 21:0.033057 22:0.023509 23:0.033944 24:0.02854 25:0.010822 26:0.004681 27:0.005933 28:0.003158 29:0.011702 30:0.053337 31:0.021178 32:0.007109 33:0.004114 34:0.001317 35:0.000642 36:0.002566 37:0.003305 38:0.01027 39:0.048533 40:0.022685 41:0.0055 42:0.002683 43:0.002628 44:0.001731 45:0.002092 46:0.005174 47:0.003427 48:0.027067 49:0.016388 50:0.005571 51:0.00534 52:0.00577 53:0.005005 54:0.004519 55:0.001388 56:0.001063 57:0.002918 58:0.004013 59:0.003825 60:0.003393 61:0.001987 62:0.003535 63:0.002275 
1000 1:0.000476 2:0.000683 3:0.000275 4:0.001263 5:0.002433 6:0.002094 7:0.001145 8:0.000351 9:0.00012 10:0.002318 11:0.001842 12:0.002135 13:0.018397 14:0.026 15:0.02922 16:0.015015 17:0.003484 18:0.000959 19:0.011627 20:0.009014 21:0.018465 22:0.02155 23:0.021219 24:0.031845 25:0.024573 26:0.012568 27:0.007663 28:0.022998 29:0.016655 30:0.010441 31:0.003672 32:0.003005 33:0.00422 34:0.003917 35:0.006471 36:0.011922 37:0.012908 38:0.011839 39:0.017495 40:0.020488 41:0.025266 42:0.017035 43:0.013878 44:0.012402 45:0.009673 46:0.001783 47:0.004165 48:0.007696 49:0.017398 50:0.043084 51:0.029621 52:0.018771 53:0.007195 54:0.002344 55:0.000338 56:0.000474 57:0.000493 58:0.00168 59:0.004883 60:0.003446 61:0.00193 62:0.0009 63:0.000441 
1000 1:0.000199 2:0.000236 3:0.004272 4:0.026871 5:0.017908 6:0.004698 7:0.000623 8:2.9e-05 9:0.000419 10:0.006055 11:0.001621 12:0.020517 13:0.034692 14:0.012899 15:0.008983 16:0.003887 17:0.001415 18:0.00264 19:0.01397 20:0.005551 21:0.021017 22:0.013385 23:0.007175 24:0.011654 25:0.008193 26:0.005206 27:0.006367 28:0.015517 29:0.012268 30:0.01415 31:0.005577 32:0.01077 33:0.010832 34:0.00909 35:0.010254 36:0.009089 37:0.027254 38:0.005956 39:0.009102 40:0.00523 41:0.008802 42:0.010804 43:0.008767 44:0.013217 45:0.012932 46:0.016694 47:0.011704 48:0.011874 49:0.009929 50:0.013075 51:0.016796 52:0.00693 53:0.007164 54:0.00699 55:0.009702 56:0.005595 57:0.002066 58:0.002792 59:0.00514 60:0.005933 61:0.008863 62:0.005318 63:0.005881 
1000 1:0.000485 2:0.001376 3:0.003243 4:0.003885 5:0.005715 6:0.006332 7:0.005448 8:0.003502 9:0.001804 10:0.003647 11:0.004135 12:0.006167 13:0.011956 14:0.020622 15:0.020838 16:0.013853 17:0.008078 18:0.005659 19:0.021947 20:0.011465 21:0.005285 22:0.00924 23:0.011318 24:0.007034 25:0.007666 26:0.01104 27:0.019568 28:0.045443 29:0.018949 30:0.003158 31:0.001191 32:0.000878 33:0.001031 34:0.001704 35:0.002873 36:0.01662 37:0.047398 38:0.015735 39:0.003993 40:0.001767 41:0.000952 42:0.002194 43:0.001046 44:0.004147 45:0.017518 46:0.018158 47:0.010848 48:0.010238 49:0.007879 50:0.007647 51:0.013291 52:0.007369 53:0.005391 54:0.008366 55:0.003349 56:0.00247 57:0.002647 58:0.003362 59:0.005471 60:0.007248 61:0.003228 62:0.00132 63:0.001542 
1000 1:0.000766 2:0.000459 3:0.001602 4:0.002294 5:0.004485 6:0.002697 7:0.00168 8:0.001959 9:0.001575 10:0.004003 11:0.00396 12:0.002731 13:0.00506 14:0.022447 15:0.01689 16:0.002625 17:0.005062 18:0.002407 19:0.024468 20:0.010528 21:0.005022 22:0.005664 23:0.018575 24:0.017761 25:0.003534 26:0.003056 27:0.005016 28:0.03114 29:0.012335 30:0.002692 31:0.002901 32:0.01026 33:0.016688 34:0.004446 35:0.002363 36:0.005787 37:0.021422 38:0.012081 39:0.00276 40:0.003631 41:0.018541 42:0.026795 43:0.009493 44:0.007044 45:0.01174 46:0.005733 47:0.004936 48:0.001557 49:0.004011 50:0.020698 51:0.049066 52:0.012492 53:0.005159 54:0.006012 55:0.000321 56:0.000342 57:0.000369 58:0.000547 59:0.00203 60:0.005423 61:0.000776 62:0.000233 63:0.000626 
1000 1:0.000711 2:0.000559 3:0.000122 4:0.000122 5:0.000524 6:0.000578 7:0.000422 8:0.000294 9:0.000818 10:0.006186 11:0.004396 12:0.005314 13:0.007163 14:0.008383 15:0.015132 16:0.008991 17:0.00169 18:0.002841 19:0.025704 20:0.010986 21:0.009052 22:0.008042 23:0.005452 24:0.015115 25:0.016967 26:0.01205 27:0.010976 28:0.015038 29:0.006721 30:0.004338 31:0.005802 32:0.003922 33:0.005133 34:0.033265 35:0.026616 36:0.013749 37:0.025156 38:0.013888 39:0.010502 40:0.008239 41:0.008173 42:0.007841 43:0.009774 44:0.009883 45:0.015262 46:0.00548 47:0.004646 48:0.004232 49:0.006743 50:0.016623 51:0.013649 52:0.00344 53:0.002678 54:0.003644 55:0.000623 56:0.000999 57:0.000873 58:0.000845 59:0.000425 60:0.000314 61:8.8e-05 62:0.000136 63:0.00015 
1000 1:0.000841 2:0.000298 3:0.000922 4:0.001363 5:0.00293 6:0.003755 7:0.002832 8:0.000806 9:0.00227 10:0.003189 11:0.00276 12:0.005073 13:0.011042 14:0.020596 15:0.020026 16:0.006955 17:0.003317 18:0.002992 19:0.021009 20:0.013787 21:0.015716 22:0.020244 23:0.015176 24:0.016154 25:0.00889 26:0.002509 27:0.003674 28:0.032333 29:0.014553 30:0.00426 31:0.002644 32:0.00345 33:0.003677 34:0.002429 35:0.005113 36:0.008286 37:0.014098 38:0.006509 39:0.002386 40:0.004861 41:0.020402 42:0.022845 43:0.021087 44:0.020397 45:0.013702 46:0.003569 47:0.004251 48:0.002379 49:0.00872 50:0.018614 51:0.038697 52:0.01744 53:0.005688 54:0.004472 55:9.1e-05 56:0.000233 57:0.000283 58:0.000668 59:0.001784 60:0.004062 61:0.00067 62:0.000209 63:0.000121 
1000 1:0.003538 2:0.003598 3:0.004251 4:0.006279 5:0.009498 6:0.007224 7:0.00283 8:0.002526 9:0.001815 10:0.013045 11:0.00786 12:0.015108 13:0.007469 14:0.014829 15:0.015244 16:0.006706 17:0.017184 18:0.0111 19:0.01425 20:0.005032 21:0.014307 22:0.006175 23:0.003545 24:0.003911 25:0.006964 26:0.013277 27:0.016669 28:0.020949 29:0.005533 30:0.008978 31:0.004999 32:0.002693 33:0.001847 34:0.011074 35:0.01121 36:0.012445 37:0.016073 38:0.007965 39:0.016715 40:0.009366 41:0.004695 42:0.004934 43:0.010905 44:0.025082 45:0.012713 46:0.011628 47:0.014346 48:0.020612 49:0.012967 50:0.014514 51:0.013437 52:0.015831 53:0.034158 54:0.01196 55:0.003312 56:0.003949 57:0.004556 58:0.006738 59:0.01519 60:0.017386 61:0.007403 62:0.006626 63:0.004342 
1000 1:0.000256 2:0.001006 3:0.000619 4:0.000525 5:0.003998 6:0.003048 7:0.000367 8:0.000106 9:7e-05 10:0.006116 11:0.008463 12:0.003056 13:0.006683 14:0.023484 15:0.01829 16:0.004143 17:0.005214 18:0.005566 19:0.024758 20:0.012647 21:0.001604 22:0.003081 23:0.00974 24:0.007386 25:0.002066 26:0.00799 27:0.019275 28:0.039601 29:0.0186 30:0.000904 31:0.001055 32:0.000927 33:0.000575 34:0.000557 35:0.006955 36:0.02906 37:0.036449 38:0.013793 39:0.002819 40:0.002821 41:0.009199 42:0.005763 43:0.00334 44:0.00453 45:0.02477 46:0.022828 47:0.013327 48:0.007365 49:0.005527 50:0.015256 51:0.008861 52:0.007963 53:0.005389 54:0.020393 55:0.000979 56:0.000884 57:0.001388 58:0.003888 59:0.034186 60:0.015 61:0.001349 62:0.00101 63:0.000806 
1000 1:0.001357 2:0.002527 3:0.003653 4:0.006026 5:0.010871 6:0.009387 7:0.00546 8:0.002502 9:0.002548 10:0.009486 11:0.013683 12:0.014216 13:0.017796 14:0.030287 15:0.027766 16:0.017345 17:0.012374 18:0.011255 19:0.017876 20:0.01867 21:0.014563 22:0.009693 23:0.008184 24:0.012038 25:0.015689 26:0.020955 27:0.021443 28:0.026788 29:0.012595 30:0.008871 31:0.006633 32:0.00747 33:0.011547 34:0.014362 35:0.022739 36:0.023614 37:0.019071 38:0.015162 39:0.015166 40:0.013591 41:0.01782 42:0.016476 43:0.016534 44:0.020983 45:0.019859 46:0.010642 47:0.009151 48:0.012871 49:0.016246 50:0.025882 51:0.025495 52:0.014419 53:0.009453 54:0.010221 55:0.003746 56:0.005648 57:0.009185 58:0.010258 59:0.011077 60:0.01551 61:0.007333 62:0.005751 63:0.007193 
1000 1:0.004214 2:0.002985 3:0.006847 4:0.012829 5:0.01413 6:0.017525 7:0.020683 8:0.008959 9:0.003547 10:0.009161 11:0.003798 12:0.002795 13:0.006462 14:0.01516 15:0.023492 16:0.011881 17:0.005213 18:0.004662 19:0.014391 20:0.006676 21:0.007773 22:0.011715 23:0.013552 24:0.014077 25:0.016452 26:0.013557 27:0.005769 28:0.017774 29:0.014237 30:0.017087 31:0.010117 32:0.008297 33:0.005425 34:0.005459 35:0.015623 36:0.01407 37:0.016979 38:0.020439 39:0.021722 40:0.008325 41:0.007696 42:0.008556 43:0.006671 44:0.017258 45:0.013255 46:0.009204 47:0.012868 48:0.020587 49:0.023829 50:0.021046 51:0.019804 52:0.021485 53:0.027355 54:0.010045 55:0.003746 56:0.003784 57:0.004005 58:0.009043 59:0.022695 60:0.019411 61:0.00618 62:0.006127 63:0.004125 
1000 1:0.010004 2:0.007008 3:0.009859 4:0.007426 5:0.015714 6:0.011401 7:0.014032 8:0.008339 9:0.004513 10:0.005648 11:0.004198 12:0.007504 13:0.008362 14:0.017424 15:0.0188 16:0.014305 17:0.009492 18:0.00684 19:0.012653 20:0.007073 21:0.00596 22:0.011152 23:0.024264 24:0.022197 25:0.015808 26:0.011162 27:0.015146 28:0.038272 29:0.012056 30:0.003246 31:0.004217 32:0.00792 33:0.004735 34:0.003388 35:0.008215 36:0.020491 37:0.060692 38:0.01192 39:0.003341 40:0.002255 41:0.003831 42:0.002702 43:0.001251 44:0.002234 45:0.017012 46:0.032632 47:0.008847 48:0.006623 49:0.006785 50:0.027642 51:0.021204 52:0.0139 53:0.012402 54:0.013509 55:0.002727 56:0.001096 57:0.000808 58:0.003584 59:0.013845 60:0.015473 61:0.006042 62:0.002771 63:0.001482 
1000 1:0.002131 2:0.002928 3:0.00151 4:0.001519 5:0.007723 6:0.0103 7:0.004065 8:0.001417 9:0.003344 10:0.010275 11:0.006418 12:0.006027 13:0.013371 14:0.019709 15:0.031148 16:0.017596 17:0.009952 18:0.005202 19:0.034253 20:0.008283 21:0.005503 22:0.011265 23:0.005446 24:0.008435 25:0.008621 26:0.007673 27:0.008642 28:0.049963 29:0.011185 30:0.002027 31:0.001151 32:0.000193 33:0.000476 34:0.000827 35:0.001435 36:0.007213 37:0.053053 38:0.012303 39:0.000975 40:0.000641 41:0.000287 42:0.000506 43:0.000316 44:0.000714 45:0.007426 46:0.02891 47:0.010474 48:0.003916 49:0.003914 50:0.015799 51:0.015254 52:0.002636 53:0.005701 54:0.007843 55:0.00304 56:0.001298 57:0.00102 58:0.002582 59:0.006136 60:0.006909 61:0.002237 62:0.002021 63:0.002289 
1000 1:0 2:2e-06 3:0 4:2e-06 5:1.3e-05 6:1.1e-05 7:1e-06 8:0 9:0 10:3.3e-05 11:0.000163 12:0.000152 13:0.001561 14:0.005072 15:0.00387 16:0.00079 17:2.4e-05 18:3e-05 19:0.005699 20:0.007609 21:0.006297 22:0.012816 23:0.022878 24:0.017833 25:0.008785 26:0.002902 27:0.00494 28:0.036275 29:0.01758 30:0.007706 31:0.009122 32:0.00653 33:0.005519 34:0.010566 35:0.006948 36:0.014475 37:0.016333 38:0.012809 39:0.008378 40:0.012243 41:0.015191 42:0.01084 43:0.009887 44:0.016395 45:0.019528 46:0.001902 47:0.001866 48:0.001502 49:0.005833 50:0.017373 51:0.018244 52:0.005451 53:0.004208 54:0.00313 55:7.5e-05 56:2.5e-05 57:4.9e-05 58:0.00055 59:0.00146 60:0.001537 61:0.000533 62:7.8e-05 63:1.8e-05 
1000 1:4.8e-05 2:0.000208 3:9e-05 4:0.000123 5:0.000509 6:0.000262 7:0.000129 8:2e-06 9:0.000184 10:0.000592 11:0.000933 12:0.002281 13:0.003526 14:0.011907 15:0.008289 16:0.002498 17:0.001516 18:0.00071 19:0.0097 20:0.015591 21:0.026323 22:0.021807 23:0.016086 24:0.010567 25:0.009977 26:0.012363 27:0.011768 28:0.030847 29:0.025464 30:0.01676 31:0.014052 32:0.009469 33:0.005483 34:0.011773 35:0.013276 36:0.0225 37:0.010536 38:0.012874 39:0.02298 40:0.015638 41:0.015621 42:0.016457 43:0.021142 44:0.021374 45:0.010846 46:0.001875 47:0.00038 48:0.002855 49:0.005268 50:0.010422 51:0.008026 52:0.006082 53:0.003261 54:0.002232 55:0.000346 56:2.9e-05 57:0.000302 58:0.00018 59:0.000386 60:0.000691 61:0.000369 62:0.00021 63:0.000279 
1000 1:0.00013 2:0.000137 3:1.8e-05 4:3.1e-05 5:0.000284 6:0.000186 7:4.2e-05 8:8.3e-05 9:0.000143 10:0.002688 11:0.003701 12:0.001568 13:0.003019 14:0.011106 15:0.014113 16:0.003092 17:0.00179 18:0.001502 19:0.019874 20:0.014161 21:0.007571 22:0.00603 23:0.009062 24:0.01099 25:0.005855 26:0.00996 27:0.012467 28:0.032812 29:0.011964 30:0.007893 31:0.008649 32:0.006038 33:0.005216 34:0.0095 35:0.010492 36:0.018625 37:0.029237 38:0.011668 39:0.007278 40:0.009202 41:0.011418 42:0.011156 43:0.014639 44:0.01413 45:0.015926 46:0.005963 47:0.003978 48:0.00701 49:0.008323 50:0.011602 51:0.014473 52:0.010805 53:0.004777 54:0.003288 55:0.00205 56:0.000729 57:0.000709 58:0.000386 59:0.001295 60:0.00117 61:0.00037 62:0.000231 63:0.000713 
885.7587569862864 1:0.005937 2:0.005042 3:0.005915 4:0.005482 5:0.015628 6:0.013632 7:0.009462 8:0.005083 9:0.004546 10:0.0008 11:0.001641 12:0.003747 13:0.01339 14:0.017548 15:0.027288 16:0.011209 17:0.001049 18:0.000894 19:0.002591 20:0.010917 21:0.011786 22:0.011489 23:0.02579 24:0.038038 25:0.012914 26:0.004795 27:0.001889 28:0.018276 29:0.016098 30:0.011956 31:0.005937 32:0.016128 33:0.024507 34:0.008923 35:0.01254 36:0.012969 37:0.021545 38:0.008234 39:0.01326 40:0.009188 41:0.013252 42:0.020558 43:0.021782 44:0.018944 45:0.011319 46:0.013985 47:0.008316 48:0.00771 49:0.009803 50:0.028356 51:0.033753 52:0.02514 53:0.024572 54:0.006136 55:0.002558 56:0.001397 57:0.001644 58:0.002442 59:0.012996 60:0.014986 61:0.003843 62:0.001898 63:0.000795 
1000 1:0.014838 2:0.008622 3:0.007526 4:0.00749 5:0.007613 6:0.008046 7:0.008788 8:0.011899 9:0.007658 10:0.012283 11:0.006097 12:0.008455 13:0.009788 14:0.041236 15:0.040707 16:0.016028 17:0.00879 18:0.00633 19:0.036881 20:0.01023 21:0.009694 22:0.006155 23:0.018584 24:0.018057 25:0.008807 26:0.011416 27:0.013594 28:0.050888 29:0.00818 30:0.005202 31:0.004518 32:0.010026 33:0.009913 34:0.013382 35:0.009381 36:0.014613 37:0.055457 38:0.007249 39:0.004306 40:0.004971 41:0.006851 42:0.013301 43:0.011477 44:0.01032 45:0.010766 46:0.046541 47:0.009153 48:0.004533 49:0.006091 50:0.012486 51:0.014395 52:0.00808 53:0.017096 54:0.018209 55:0.011899 56:0.003474 57:0.003654 58:0.010582 59:0.021253 60:0.030395 61:0.009387 62:0.007513 63:0.004822 
1000 1:0.000107 2:0.000818 3:0.001902 4:0.003648 5:0.01066 6:0.01536 7:0.004106 8:0.000611 9:3.5e-05 10:0.001235 11:0.001981 12:0.0053 13:0.004067 14:0.006883 15:0.006981 16:0.007112 17:0.003787 18:0.00075 19:0.010663 20:0.007446 21:0.019623 22:0.007385 23:0.009316 24:0.005251 25:0.011492 26:0.013047 27:0.011678 28:0.029773 29:0.014094 30:0.008172 31:0.008977 32:0.007232 33:0.010053 34:0.009424 35:0.011428 36:0.017771 37:0.032567 38:0.01924 39:0.011209 40:0.007356 41:0.007834 42:0.007508 43:0.008054 44:0.012367 45:0.018413 46:0.00678 47:0.007618 48:0.010605 49:0.016605 50:0.010844 51:0.015194 52:0.016944 53:0.007711 54:0.009774 55:0.000233 56:0.000265 57:0.001544 58:0.008592 59:0.013141 60:0.012657 61:0.007931 62:0.003866 63:0.001389 
1000 1:0.004588 2:0.003316 3:0.006363 4:0.004912 5:0.005653 6:0.006374 7:0.005791 8:0.005907 9:0.006128 10:0.015568 11:0.011782 12:0.015469 13:0.01693 14:0.020462 15:0.016562 16:0.013824 17:0.009978 18:0.011548 19:0.036333 20:0.011613 21:0.004867 22:0.0059 23:0.003175 24:0.00296 25:0.005531 26:0.006188 27:0.010125 28:0.036681 29:0.009909 30:0.002785 31:0.002882 32:0.00207 33:0.001215 34:0.001592 35:0.001769 36:0.007148 37:0.034803 38:0.013355 39:0.008397 40:0.003503 41:0.00586 42:0.004576 43:0.002869 44:0.002023 45:0.008154 46:0.013542 47:0.012862 48:0.023213 49:0.022174 50:0.035897 51:0.027185 52:0.009743 53:0.00502 54:0.007865 55:0.003215 56:0.002701 57:0.00439 58:0.006143 59:0.019971 60:0.022651 61:0.004758 62:0.001611 63:0.001651 
-1000 1:0.00249 2:0.00049 3:0.000451 4:8.6e-05 5:0.000541 6:0.000871 7:0.000428 8:0.000786 9:0.002246 10:0.010052 11:0.004957 12:0.004164 13:0.002847 14:0.007803 15:0.019289 16:0.008173 17:0.005534 18:0.005235 19:0.061329 20:0.009503 21:0.002386 22:0.000971 23:0.001372 24:0.003897 25:0.001531 26:0.003092 27:0.012572 28:0.071179 29:0.006806 30:0.00024 31:5e-06 32:1e-05 33:1.3e-05 34:1.2e-05 35:2.1e-05 36:0.008688 37:0.054156 38:0.008501 39:0.00422 40:0.00105 41:0.004954 42:0.004528 43:0.003512 44:0.003752 45:0.013344 46:0.005233 47:0.003578 48:0.006625 49:0.002357 50:0.020247 51:0.022555 52:0.007591 53:0.004918 54:0.003182 55:5.5e-05 56:0.000758 57:0.00098 58:0.000407 59:0.00341 60:0.00386 61:0.001227 62:5.5e-05 63:4.2e-05 
-1000 1:0.030321 2:0.01412 3:0.00479 4:0.00727 5:0.005815 6:0.007771 7:0.003605 8:0.001059 9:0.007449 10:0.070824 11:0.021245 12:0.005935 13:0.003547 14:0.001985 15:0.001773 16:0.001717 17:0.001514 18:0.010114 19:0.067475 20:0.017828 21:0.004212 22:0.004008 23:0.003582 24:0.003859 25:0.003759 26:0.003439 27:0.011251 28:0.055427 29:0.017067 30:0.006749 31:0.006864 32:0.008697 33:0.006733 34:0.007979 35:0.006036 36:0.014038 37:0.048946 38:0.020109 39:0.01327 40:0.011291 41:0.009859 42:0.006369 43:0.005458 44:0.005908 45:0.016415 46:0.028644 47:0.016161 48:0.012173 49:0.017851 50:0.019541 51:0.0189 52:0.009673 53:0.005072 54:0.015024 55:0.001583 56:0.002485 57:0.002443 58:0.006821 59:0.014639 60:0.012109 61:0.004896 62:0.0021 63:0.001412 
-1000 1:0.033704 2:0.00926 3:0.005204 4:0.003544 5:0.008936 6:0.010858 7:0.004682 8:0.003343 9:0.008905 10:0.082929 11:0.011979 12:0.005424 13:0.005345 14:0.005967 15:0.004667 16:0.004235 17:0.001963 18:0.015775 19:0.08694 20:0.009802 21:0.004031 22:0.001905 23:0.00211 24:0.001864 25:0.004678 26:0.004582 27:0.014012 28:0.067779 29:0.014073 30:0.002807 31:0.002097 32:0.002169 33:0.004653 34:0.004284 35:0.00286 36:0.020002 37:0.048111 38:0.01907 39:0.008349 40:0.008717 41:0.00863 42:0.009922 43:0.005891 44:0.005475 45:0.020175 46:0.018268 47:0.011225 48:0.007869 49:0.008595 50:0.022198 51:0.023801 52:0.010314 53:0.007693 54:0.012615 55:0.00059 56:0.000579 57:0.001622 58:0.004253 59:0.012996 60:0.014272 61:0.005456 62:0.001654 63:0.000514 
-1000 1:0.002683 2:0.002535 3:0.000308 4:0.004246 5:0.011955 6:0.028621 7:0.005241 8:0.000249 9:4.5e-05 10:0.007911 11:0.004302 12:0.003317 13:0.005925 14:0.011799 15:0.019737 16:0.005832 17:0.00529 18:0.003811 19:0.044643 20:0.011297 21:0.003976 22:0.00275 23:0.003249 24:0.006205 25:0.003385 26:0.005068 27:0.01716 28:0.065861 29:0.008446 30:0.001904 31:0.000411 32:0.000453 33:0.000582 34:0.000315 35:0.004623 36:0.017293 37:0.041185 38:0.011765 39:0.011897 40:0.00355 41:0.003268 42:0.004474 43:0.003744 44:0.003396 45:0.013147 46:0.010895 47:0.005959 48:0.003674 49:0.005482 50:0.010047 51:0.011937 52:0.008069 53:0.005213 54:0.004339 55:0.000157 56:0.000706 57:0.001111 58:0.001721 59:0.003599 60:0.003389 61:0.000943 62:0.000263 63:0.000102 
-1000 1:0.000856 2:0.000521 3:0.001001 4:0.000999 5:0.000664 6:0.000336 7:0.000271 8:0.001115 9:0.000789 10:0.002764 11:0.001459 12:0.003867 13:0.004987 14:0.009041 15:0.01064 16:0.005314 17:0.005164 18:0.001945 19:0.010316 20:0.003192 21:0.018476 22:0.016687 23:0.0085 24:0.009988 25:0.017999 26:0.030182 27:0.007374 28:0.026615 29:0.01717 30:0.034047 31:0.015004 32:0.009922 33:0.0053 34:0.012885 35:0.015336 36:0.012299 37:0.011931 38:0.009085 39:0.044144 40:0.022263 41:0.013159 42:0.007383 43:0.008802 44:0.018123 45:0.006896 46:0.002009 47:0.001102 48:0.004345 49:0.005237 50:0.015889 51:0.008285 52:0.004033 53:0.006313 54:0.001651 55:0.001802 56:0.00166 57:0.001178 58:0.000528 59:0.001509 60:0.002133 61:0.002212 62:0.001123 63:0.001221 
-511.1690860180496 1:0.000387 2:0.000158 3:0.000317 4:0.000564 5:0.001071 6:0.000583 7:0.000305 8:0.000148 9:0.000665 10:0.000961 11:0.001509 12:0.008489 13:0.007473 14:0.011652 15:0.014242 16:0.004129 17:0.004132 18:0.002877 19:0.004648 20:0.010983 21:0.011228 22:0.002891 23:0.041932 24:0.073534 25:0.017553 26:0.014988 27:0.003694 28:0.016563 29:0.00838 30:0.001387 31:0.000595 32:0.01217 33:0.022859 34:0.007772 35:0.0199 36:0.021776 37:0.007891 38:0.010346 39:0.010454 40:0.002955 41:0.015211 42:0.025535 43:0.012317 44:0.022353 45:0.013069 46:0.000627 47:0.002206 48:0.013706 49:0.00908 50:0.051015 51:0.091094 52:0.012272 53:0.008668 54:0.000837 55:0.000998 56:0.000416 57:0.001173 58:0.002801 59:0.038938 60:0.058442 61:0.002272 62:0.000868 63:0.000222 
-1000 1:0.005638 2:0.01412 3:0.008149 4:0.011483 5:0.012846 6:0.005522 7:0.00303 8:0.001341 9:0.001419 10:0.013167 11:0.021808 12:0.016873 13:0.012519 14:0.013527 15:0.008869 16:0.005113 17:0.005179 18:0.005616 19:0.015167 20:0.020434 21:0.023182 22:0.012852 23:0.006885 24:0.011266 25:0.007953 26:0.007844 27:0.008922 28:0.010611 29:0.011673 30:0.017754 31:0.010873 32:0.005186 33:0.01141 34:0.033161 35:0.017421 36:0.008703 37:0.010671 38:0.010654 39:0.008357 40:0.008325 41:0.009907 42:0.010163 43:0.0261 44:0.016683 45:0.008693 46:0.006434 47:0.005431 48:0.006479 49:0.007053 50:0.00781 51:0.014376 52:0.018613 53:0.021896 54:0.016672 55:0.003523 56:0.002333 57:0.005239 58:0.003355 59:0.006099 60:0.01222 61:0.007651 62:0.01102 63:0.005351 
-701.4506080064039 1:0.003946 2:0.008216 3:0.006975 4:0.006309 5:0.009392 6:0.005778 7:0.004794 8:0.002686 9:0.003632 10:0.008076 11:0.010701 12:0.00909 13:0.010163 14:0.009371 15:0.011004 16:0.00876 17:0.006837 18:0.005048 19:0.017481 20:0.009401 21:0.006136 22:0.009837 23:0.009378 24:0.015475 25:0.005245 26:0.008134 27:0.013047 28:0.035685 29:0.019887 30:0.007774 31:0.009472 32:0.010901 33:0.012383 34:0.006087 35:0.00829 36:0.012343 37:0.027644 38:0.01735 39:0.008824 40:0.003963 41:0.01056 42:0.007528 43:0.005245 44:0.010295 45:0.012228 46:0.016114 47:0.01158 48:0.002193 49:0.003205 50:0.005423 51:0.004752 52:0.003688 53:0.002586 54:0.007552 55:0.002999 56:0.002503 57:0.00128 58:0.001645 59:0.006099 60:0.004236 61:0.002179 62:0.000889 63:0.001983 
-1000 1:0.00157 2:0.002591 3:0.004994 4:0.004358 5:0.004687 6:0.005095 7:0.004508 8:0.00541 9:0.001767 10:0.021184 11:0.008379 12:0.005571 13:0.007237 14:0.027932 15:0.029111 16:0.008085 17:0.007379 18:0.006695 19:0.071926 20:0.018708 21:0.00246 22:0.001365 23:0.006473 24:0.0056 25:0.001743 26:0.002799 27:0.012902 28:0.084939 29:0.013622 30:0.000114 31:9e-06 32:1.5e-05 33:2.6e-05 34:3.5e-05 35:8.8e-05 36:0.007022 37:0.07998 38:0.017347 39:0.000855 40:0.000257 41:0.000368 42:0.000322 43:0.000618 44:0.000288 45:0.008812 46:0.049718 47:0.016123 48:0.00614 49:0.006758 50:0.018583 51:0.016981 52:0.008894 53:0.003707 54:0.011184 55:0.006776 56:0.002849 57:0.00338 58:0.008043 59:0.02382 60:0.02067 61:0.009564 62:0.003141 63:0.002778 
-1000 1:0.002577 2:0.001096 3:0.000954 4:0.003134 5:0.004721 6:0.00509 7:0.003916 8:0.000996 9:0.001516 10:0.001383 11:0.003317 12:0.009236 13:0.021302 14:0.019079 15:0.017752 16:0.023474 17:0.010407 18:0.002065 19:0.003293 20:0.01151 21:0.018417 22:0.01952 23:0.017311 24:0.014883 25:0.020422 26:0.019782 27:0.006361 28:0.015285 29:0.020314 30:0.012917 31:0.007753 32:0.005355 33:0.004267 34:0.009447 35:0.007899 36:0.012827 37:0.004393 38:0.012019 39:0.016632 40:0.01797 41:0.015967 42:0.016764 43:0.016968 44:0.020238 45:0.010904 46:0.000836 47:0.002233 48:0.01366 49:0.021329 50:0.019359 51:0.022015 52:0.021446 53:0.01433 54:0.002617 55:0.000384 56:0.000898 57:0.001795 58:0.007082 59:0.012562 60:0.014984 61:0.007232 62:0.00264 63:0.00071 
-540.3666491877453 1:0.008225 2:0.00705 3:0.006329 4:0.006415 5:0.010206 6:0.008697 7:0.008796 8:0.010288 9:0.008799 10:0.009889 11:0.008381 12:0.005231 13:0.009965 14:0.027142 15:0.032718 16:0.019338 17:0.010446 18:0.007495 19:0.028998 20:0.014149 21:0.007635 22:0.007139 23:0.020012 24:0.026171 25:0.014529 26:0.007579 27:0.015437 28:0.029867 29:0.01461 30:0.007407 31:0.00623 32:0.005412 33:0.005306 34:0.00564 35:0.00595 36:0.015447 37:0.025241 38:0.013968 39:0.009978 40:0.010036 41:0.013239 42:0.014091 43:0.006092 44:0.007008 45:0.013819 46:0.011646 47:0.007219 48:0.005748 49:0.006637 50:0.026686 51:0.033096 52:0.009277 53:0.006957 54:0.007623 55:0.000891 56:0.00126 57:0.00197 58:0.002389 59:0.014753 60:0.018195 61:0.006154 62:0.002557 63:0.000756 
-1000 1:0.005049 2:0.001605 3:0.001936 4:0.00802 5:0.01204 6:0.013173 7:0.007061 8:0.001827 9:0.002188 10:0.009523 11:0.004649 12:0.005743 13:0.013657 14:0.042613 15:0.031738 16:0.013396 17:0.006021 18:0.003606 19:0.023045 20:0.012727 21:0.006622 22:0.005874 23:0.011831 24:0.010375 25:0.005218 26:0.004947 27:0.007338 28:0.044155 29:0.009908 30:0.002773 31:0.001988 32:0.004196 33:0.003356 34:0.002145 35:0.002922 36:0.006926 37:0.046077 38:0.014383 39:0.003206 40:0.002784 41:0.005274 42:0.002162 43:0.002424 44:0.006249 45:0.014719 46:0.02251 47:0.011546 48:0.011054 49:0.009016 50:0.023564 51:0.019808 52:0.008664 53:0.008529 54:0.011564 55:0.002904 56:0.003934 57:0.004307 58:0.008735 59:0.015423 60:0.014522 61:0.008074 62:0.005112 63:0.004567 
-1000 1:0.000119 2:9.9e-05 3:0.000432 4:0.004905 5:0.048101 6:0.043925 7:0.005762 8:0.000519 9:0.000302 10:0.004505 11:0.003059 12:0.004115 13:0.009669 14:0.049741 15:0.050765 16:0.010935 17:0.004048 18:0.005352 19:0.035186 20:0.011329 21:0.006357 22:0.004316 23:0.006477 24:0.006895 25:0.005027 26:0.004757 27:0.01308 28:0.04812 29:0.01489 30:0.003015 31:0.000999 32:0.001413 33:0.001374 34:0.002598 35:0.004639 36:0.010376 37:0.030888 38:0.015723 39:0.00555 40:0.002889 41:0.0048 42:0.003086 43:0.003737 44:0.006115 45:0.012024 46:0.00605 47:0.005298 48:0.008383 49:0.01285 50:0.033037 51:0.027073 52:0.009656 53:0.007247 54:0.005378 55:0.00018 56:0.000234 57:0.000959 58:0.003419 59:0.034416 60:0.035335 61:0.002575 62:0.001106 63:0.000529 
-373.114454247209 1:0.00311 2:0.002228 3:0.008351 4:0.006516 5:0.007023 6:0.005293 7:0.004297 8:0.002428 9:0.005226 10:0.006807 11:0.01047 12:0.017014 13:0.019192 14:0.01637 15:0.010569 16:0.006595 17:0.007056 18:0.010354 19:0.007639 20:0.013036 21:0.018868 22:0.010365 23:0.007433 24:0.011689 25:0.006271 26:0.008067 27:0.009037 28:0.01501 29:0.012548 30:0.010539 31:0.003977 32:0.003452 33:0.009754 34:0.01094 35:0.011064 36:0.017165 37:0.017468 38:0.02279 39:0.025303 40:0.013132 41:0.005287 42:0.006382 43:0.005522 44:0.008751 45:0.012924 46:0.011507 47:0.020388 48:0.008936 49:0.011887 50:0.00699 51:0.006066 52:0.002765 53:0.00415 54:0.006213 55:0.001866 56:0.002488 57:0.001312 58:0.002374 59:0.00357 60:0.008794 61:0.006894 62:0.002347 63:0.001261 
-13.12875655629818 1:4e-06 2:9e-06 3:0.000305 4:0.00259 5:0.011642 6:0.001314 7:2e-06 8:8e-06 9:1e-05 10:0.001038 11:0.001756 12:0.007141 13:0.014919 14:0.009922 15:0.002535 16:0.000256 17:0.000752 18:0.001232 19:0.004371 20:0.015027 21:0.041584 22:0.018741 23:0.005076 24:0.001367 25:0.001183 26:0.002667 27:0.002778 28:0.003345 29:0.023026 30:0.062411 31:0.017571 32:0.001368 33:0.000726 34:0.00017 35:0.000424 36:0.000948 37:0.01073 38:0.031603 39:0.048631 40:0.015763 41:0.002848 42:0.00083 43:0.000889 44:0.002079 45:0.002202 46:0.010399 47:0.025511 48:0.04633 49:0.01208 50:0.001427 51:0.000746 52:0.00105 53:0.002142 54:0.003565 55:0.002538 56:0.010864 57:0.021789 58:0.009208 59:0.005219 60:0.001131 61:0.005087 62:0.005271 63:0.003387 
-373.9301951837539 1:0.000253 2:3.3e-05 3:7.9e-05 4:0.000361 5:0.03547 6:0.035719 7:0.000627 8:0.000393 9:0.000236 10:0.001153 11:0.00112 12:0.001255 13:0.004114 14:0.036391 15:0.038898 16:0.004864 17:0.001774 18:0.001762 19:0.009079 20:0.0046 21:0.006025 22:0.013295 23:0.019818 24:0.019731 25:0.016839 26:0.007094 27:0.006883 28:0.014281 29:0.004846 30:0.010708 31:0.015719 32:0.001154 33:0.00194 34:0.019167 35:0.016503 36:0.003262 37:0.010317 38:0.010504 39:0.024059 40:0.012645 41:0.000693 42:0.000427 43:0.015516 44:0.026942 45:0.00167 46:0.002882 47:0.004151 48:0.019609 49:0.01554 50:0.002066 51:0.002439 52:0.015548 53:0.017765 54:0.003171 55:0.001129 56:0.000983 57:0.006176 58:0.009458 59:0.002368 60:0.000891 61:0.010105 62:0.007247 63:0.00112 
-1000 1:2.6e-05 2:0.000148 3:0.000809 4:0.002116 5:0.049394 6:0.045559 7:0.001206 8:0.001312 9:7.2e-05 10:0.003092 11:0.003762 12:0.006077 13:0.004469 14:0.049062 15:0.04323 16:0.006454 17:0.00518 18:0.003832 19:0.011923 20:0.005347 21:0.018494 22:0.008142 23:0.002703 24:0.002914 25:0.007295 26:0.020514 27:0.005732 28:0.013371 29:0.006029 30:0.020492 31:0.009479 32:0.001638 33:0.001019 34:0.008994 35:0.032809 36:0.003901 37:0.010682 38:0.005604 39:0.026237 40:0.009245 41:0.00237 42:0.001162 43:0.009375 44:0.036178 45:0.00871 46:0.009476 47:0.003967 48:0.025065 49:0.009371 50:0.001986 51:0.001564 52:0.009646 53:0.022689 54:0.012393 55:0.007797 56:0.00815 57:0.00804 58:0.00533 59:0.001046 60:0.00069 61:0.003679 62:0.00585 63:0.005878 
-989.3762495241887 1:0.000255 2:0.000148 3:0.00058 4:0.001014 5:0.001639 6:0.00424 7:0.003702 8:0.001839 9:0.004315 10:0.00061 11:0.000759 12:0.002429 13:0.009485 14:0.008579 15:0.032201 16:0.015683 17:0.004041 18:0.001439 19:0.009325 20:0.00641 21:0.007679 22:0.015286 23:0.019936 24:0.013646 25:0.014512 26:0.013063 27:0.008911 28:0.012176 29:0.009516 30:0.011444 31:0.019646 32:0.016195 33:0.013438 34:0.003644 35:0.007409 36:0.008519 37:0.008231 38:0.012319 39:0.008358 40:0.017589 41:0.012895 42:0.009055 43:0.009187 44:0.012494 45:0.013267 46:0.002218 47:0.00291 48:0.004225 49:0.014073 50:0.024598 51:0.025083 52:0.013179 53:0.006759 54:0.001916 55:1e-05 56:3.1e-05 57:0.000147 58:0.000835 59:0.002831 60:0.003991 61:0.000959 62:9.4e-05 63:4e-06 
-1000 1:0.005484 2:0.005205 3:0.004453 4:0.004919 5:0.005881 6:0.008232 7:0.005825 8:0.005143 9:0.008261 10:0.009646 11:0.007949 12:0.012738 13:0.013283 14:0.008514 15:0.007971 16:0.012815 17:0.018645 18:0.017194 19:0.015705 20:0.009413 21:0.016109 22:0.009662 23:0.010771 24:0.010585 25:0.015148 26:0.015466 27:0.019561 28:0.013518 29:0.013473 30:0.016429 31:0.014169 32:0.011919 33:0.013671 34:0.019411 35:0.012789 36:0.01187 37:0.014458 38:0.008853 39:0.015276 40:0.015718 41:0.013421 42:0.016347 43:0.013436 44:0.012727 45:0.008971 46:0.009958 47:0.007874 48:0.015071 49:0.01684 50:0.012082 51:0.014772 52:0.01955 53:0.018074 54:0.015255 55:0.00522 56:0.00555 57:0.014001 58:0.013512 59:0.009396 60:0.010204 61:0.009151 62:0.007542 63:0.005345 
-1000 1:0.0026 2:0.002269 3:0.002002 4:0.001407 5:0.004762 6:0.003853 7:0.00156 8:0.001796 9:0.001744 10:0.003663 11:0.003701 12:0.004269 13:0.008245 14:0.032705 15:0.023903 16:0.011716 17:0.004182 18:0.003595 19:0.022507 20:0.015217 21:0.007218 22:0.010864 23:0.021509 24:0.023446 25:0.010842 26:0.004957 27:0.007131 28:0.042566 29:0.015394 30:0.007251 31:0.005473 32:0.006278 33:0.01156 34:0.00551 35:0.007896 36:0.014553 37:0.025334 38:0.015555 39:0.012936 40:0.009709 41:0.014239 42:0.015481 43:0.007931 44:0.01227 45:0.017971 46:0.006219 47:0.004715 48:0.006357 49:0.014248 50:0.034418 51:0.028293 52:0.015598 53:0.004768 54:0.00558 55:0.001593 56:0.000376 57:0.000853 58:0.003104 59:0.011164 60:0.010092 61:0.004648 62:0.002305 63:0.002313 
-1000 1:0.001859 2:0.002633 3:0.000964 4:0.001463 5:0.002789 6:0.002286 7:0.001617 8:0.0037 9:0.002601 10:0.005253 11:0.006434 12:0.00444 13:0.008612 14:0.03697 15:0.035934 16:0.007345 17:0.003987 18:0.005105 19:0.020286 20:0.013604 21:0.007788 22:0.012371 23:0.029365 24:0.027911 25:0.010006 26:0.00768 27:0.012011 28:0.037022 29:0.0192 30:0.008401 31:0.004842 32:0.009122 33:0.00785 34:0.003905 35:0.006067 36:0.015763 37:0.029264 38:0.015934 39:0.016721 40:0.014485 41:0.022835 42:0.016595 43:0.008411 44:0.008749 45:0.017058 46:0.007632 47:0.007238 48:0.013308 49:0.019029 50:0.04618 51:0.027417 52:0.013344 53:0.01 54:0.010078 55:0.003489 56:0.002244 57:0.002284 58:0.004207 59:0.014601 60:0.010376 61:0.002579 62:0.001723 63:0.002608 
-1000 1:0.001367 2:0.001952 3:0.002228 4:0.004752 5:0.029018 6:0.026588 7:0.002559 8:0.002227 9:0.00132 10:0.003882 11:0.005824 12:0.004069 13:0.006253 14:0.023274 15:0.02493 16:0.004089 17:0.002878 18:0.00189 19:0.018389 20:0.014057 21:0.009126 22:0.010471 23:0.027272 24:0.024823 25:0.007861 26:0.006731 27:0.008036 28:0.043368 29:0.026708 30:0.008517 31:0.007887 32:0.014047 33:0.012478 34:0.004559 35:0.009233 36:0.015669 37:0.021996 38:0.011313 39:0.0073 40:0.014918 41:0.030503 42:0.022384 43:0.013491 44:0.009965 45:0.009852 46:0.00088 47:0.001005 48:0.005503 49:0.018507 50:0.035052 51:0.034602 52:0.015963 53:0.005633 54:0.001612 55:7e-06 56:0.000437 57:0.001328 58:0.005472 59:0.029768 60:0.027752 61:0.006406 62:0.000908 63:0.000201 
-1000 1:0.000369 2:1.5e-05 3:1.6e-05 4:0.000306 5:0.003197 6:0.004422 7:0.000674 8:0.000699 9:0.001101 10:0.00393 11:0.00191 12:0.001672 13:0.004042 14:0.023971 15:0.035272 16:0.005439 17:0.002919 18:0.00295 19:0.017175 20:0.008735 21:0.006198 22:0.004452 23:0.015939 24:0.021144 25:0.00659 26:0.002662 27:0.010349 28:0.035287 29:0.013243 30:0.002551 31:0.001234 32:0.002918 33:0.003414 34:0.001439 35:0.001525 36:0.00911 37:0.018871 38:0.010711 39:0.010404 40:0.008199 41:0.011974 42:0.010762 43:0.008222 44:0.007626 45:0.010316 46:0.003658 47:0.003009 48:0.005935 49:0.012865 50:0.019674 51:0.029002 52:0.012766 53:0.003053 54:0.002561 55:0.000417 56:0.000566 57:0.00067 58:0.002076 59:0.005891 60:0.007784 61:0.001439 62:0.00019 63:0.000386 
-1000 1:2e-06 2:3.2e-05 3:0.000484 4:0.002614 5:0.006929 6:0.008046 7:0.001453 8:6.8e-05 9:2.6e-05 10:0.001232 11:0.001448 12:0.003075 13:0.011577 14:0.026201 15:0.024125 16:0.009487 17:0.002434 18:0.003474 19:0.008922 20:0.006131 21:0.006756 22:0.007409 23:0.018485 24:0.016544 25:0.003663 26:0.006664 27:0.014007 28:0.028034 29:0.010412 30:0.002744 31:0.002621 32:0.004799 33:0.003819 34:0.000851 35:0.002046 36:0.01451 37:0.02412 38:0.006795 39:0.00805 40:0.008834 41:0.013425 42:0.014155 43:0.006151 44:0.004282 45:0.009281 46:0.007029 47:0.004085 48:0.004638 49:0.009934 50:0.023612 51:0.026494 52:0.00648 53:0.003063 54:0.003556 55:0.000118 56:0.000581 57:0.001802 58:0.002239 59:0.012573 60:0.010483 61:0.000649 62:0.000247 63:7.8e-05 
-67.82546739046801 1:0.000972 2:0.001131 3:0.004177 4:0.009839 5:0.016162 6:0.002041 7:0.000897 8:0.000404 9:0.000394 10:0.002402 11:0.003944 12:0.010793 13:0.013748 14:0.03585 15:0.012261 16:0.003718 17:0.002269 18:0.002378 19:0.016919 20:0.012262 21:0.006395 22:0.013328 23:0.016234 24:0.009499 25:0.007384 26:0.004708 27:0.004542 28:0.035065 29:0.012364 30:0.00348 31:0.005696 32:0.006379 33:0.003057 34:0.00155 35:0.001594 36:0.007127 37:0.020797 38:0.010315 39:0.007805 40:0.009391 41:0.014436 42:0.007222 43:0.003349 44:0.005244 45:0.012954 46:0.004541 47:0.004181 48:0.008553 49:0.007715 50:0.018386 51:0.022312 52:0.005022 53:0.00568 54:0.006538 55:0.000679 56:0.000578 57:0.000878 58:0.001049 59:0.011179 60:0.012664 61:0.001061 62:0.000916 63:0.000392 
-1000 1:0.005119 2:0.006533 3:0.009399 4:0.009313 5:0.003524 6:0.00426 7:0.00587 8:0.003414 9:0.003041 10:0.020556 11:0.013559 12:0.01401 13:0.009799 14:0.007052 15:0.009588 16:0.008713 17:0.006175 18:0.008373 19:0.007767 20:0.01445 21:0.022883 22:0.011183 23:0.017711 24:0.014385 25:0.003146 26:0.002893 27:0.00245 28:0.008671 29:0.013051 30:0.018134 31:0.013744 32:0.02288 33:0.016566 34:0.00346 35:0.002152 36:0.003525 37:0.039156 38:0.016807 39:0.010523 40:0.006373 41:0.009908 42:0.008339 43:0.00412 44:0.004538 45:0.014884 46:0.020339 47:0.010684 48:0.00874 49:0.009794 50:0.023662 51:0.013587 52:0.006165 53:0.005266 54:0.008642 55:0.00198 56:0.001798 57:0.002376 58:0.00452 59:0.016399 60:0.012413 61:0.00348 62:0.001083 63:0.000552 
-1000 1:0.000223 2:0.00024 3:0.001796 4:0.001702 5:0.003345 6:0.002781 7:0.000602 8:0.000314 9:0.000705 10:0.001909 11:0.001828 12:0.001539 13:0.00785 14:0.025614 15:0.027993 16:0.006195 17:0.001676 18:0.002024 19:0.016034 20:0.006567 21:0.005286 22:0.009416 23:0.014028 24:0.02093 25:0.010729 26:0.00295 27:0.009104 28:0.029151 29:0.012894 30:0.005075 31:0.00411 32:0.0044 33:0.004853 34:0.003921 35:0.00314 36:0.01236 37:0.017942 38:0.011731 39:0.009525 40:0.007355 41:0.014132 42:0.011668 43:0.003603 44:0.007856 45:0.011966 46:0.003114 47:0.005546 48:0.005448 49:0.010558 50:0.020812 51:0.021386 52:0.008497 53:0.007741 54:0.002082 55:0.001251 56:0.000298 57:0.000527 58:0.003122 59:0.00945 60:0.007445 61:0.001548 62:0.000144 63:0.00033 
-556.2858224143874 1:3.4e-05 2:2e-06 3:0.000112 4:0.002967 5:0.017877 6:0.017197 7:0.001683 8:0.000142 9:0.000117 10:0.000585 11:0.000951 12:0.002851 13:0.013257 14:0.022186 15:0.024767 16:0.006028 17:0.002367 18:0.001461 19:0.010828 20:0.009331 21:0.010709 22:0.005761 23:0.007877 24:0.012181 25:0.007 26:0.005522 27:0.004905 28:0.03431 29:0.010985 30:0.004568 31:0.001701 32:0.003629 33:0.006624 34:0.001347 35:0.002246 36:0.009748 37:0.017305 38:0.012278 39:0.0062 40:0.009588 41:0.013001 42:0.01263 43:0.005995 44:0.006805 45:0.010183 46:0.004572 47:0.005099 48:0.007767 49:0.008986 50:0.01845 51:0.028707 52:0.006402 53:0.002511 54:0.004507 55:0.000769 56:0.002012 57:0.001721 58:0.002278 59:0.00776 60:0.010831 61:0.001096 62:8.1e-05 63:0.000674 
-1000 1:0.000827 2:0.001469 3:0.001478 4:0.001796 5:0.002033 6:0.002221 7:0.000722 8:0.000582 9:0.000824 10:0.000264 11:0.000979 12:0.003926 13:0.010306 14:0.019337 15:0.022157 16:0.003773 17:0.000681 18:0.000688 19:0.004543 20:0.011761 21:0.00967 22:0.009754 23:0.017196 24:0.022565 25:0.007371 26:0.002236 27:0.001628 28:0.029535 29:0.014566 30:0.004511 31:0.002689 32:0.007581 33:0.009269 34:0.003485 35:0.002893 36:0.00615 37:0.030906 38:0.008872 39:0.004235 40:0.004225 41:0.013401 42:0.003683 43:0.002067 44:0.004368 45:0.011441 46:0.007501 47:0.004595 48:0.00521 49:0.010355 50:0.028962 51:0.016585 52:0.007099 53:0.005106 54:0.005067 55:0.000244 56:0.00019 57:0.000786 58:0.004499 59:0.024047 60:0.016565 61:0.003671 62:0.000377 63:8.6e-05 
-1000 1:0.000567 2:0.000696 3:0.000485 4:0.000903 5:0.002628 6:0.00247 7:0.000526 8:1.2e-05 9:1e-05 10:0.002248 11:0.001075 12:0.001858 13:0.010385 14:0.025581 15:0.026001 16:0.006872 17:0.001783 18:0.001062 19:0.016039 20:0.00793 21:0.007256 22:0.013504 23:0.015075 24:0.014156 25:0.005767 26:0.004707 27:0.007113 28:0.033303 29:0.008397 30:0.003937 31:0.002687 32:0.005401 33:0.005046 34:0.00153 35:0.002603 36:0.014115 37:0.016873 38:0.006992 39:0.007801 40:0.006286 41:0.013851 42:0.01195 43:0.007396 44:0.008341 45:0.013927 46:0.00468 47:0.003704 48:0.004466 49:0.013614 50:0.026319 51:0.022241 52:0.006049 53:0.004081 54:0.003151 55:0.00061 56:0.000961 57:0.001035 58:0.00253 59:0.012672 60:0.009734 61:0.00095 62:0.000157 63:2.5e-05 
-1000 1:0.000856 2:0.001295 3:0.001166 4:0.000775 5:0.004285 6:0.003986 7:0.00059 8:0.000653 9:0.000819 10:0.00096 11:0.001131 12:0.002726 13:0.006979 14:0.021271 15:0.024084 16:0.006139 17:0.002253 18:0.002 19:0.012491 20:0.012059 21:0.007887 22:0.00759 23:0.013281 24:0.017022 25:0.008555 26:0.004948 27:0.005073 28:0.025389 29:0.017311 30:0.006674 31:0.001628 32:0.004026 33:0.008595 34:0.004351 35:0.005822 36:0.007945 37:0.023315 38:0.00823 39:0.008569 40:0.006652 41:0.014513 42:0.011988 43:0.007248 44:0.010474 45:0.006901 46:0.00527 47:0.003507 48:0.003887 49:0.011054 50:0.017201 51:0.025576 52:0.00922 53:0.003487 54:0.003111 55:0.001387 56:0.000585 57:0.000515 58:0.001606 59:0.008552 60:0.009175 61:0.001422 62:0.000199 63:0.000616 
-1000 1:0.000159 2:0.000108 3:3.5e-05 4:0.001276 5:0.005816 6:0.004384 7:0.001239 8:0.001049 9:0.000305 10:0.002589 11:0.002235 12:0.003496 13:0.005681 14:0.033053 15:0.025493 16:0.005225 17:0.002123 18:0.002337 19:0.019166 20:0.007518 21:0.007363 22:0.009295 23:0.01907 24:0.014912 25:0.006162 26:0.003391 27:0.008354 28:0.03377 29:0.006833 30:0.003599 31:0.002391 32:0.006387 33:0.003769 34:0.00084 35:0.00234 36:0.012787 37:0.022036 38:0.005407 39:0.006565 40:0.01011 41:0.014413 42:0.014842 43:0.003781 44:0.006537 45:0.009714 46:0.004321 47:0.004668 48:0.005771 49:0.009154 50:0.025071 51:0.025462 52:0.005274 53:0.003005 54:0.003933 55:0.000518 56:0.000227 57:0.000373 58:0.001257 59:0.009262 60:0.009427 61:0.000409 62:0.0008 63:0.001327 
-1000 1:0.001882 2:0.000584 3:0.000392 4:0.000537 5:0.002746 6:0.002395 7:0.000571 8:0.000242 9:0.002766 10:0.003271 11:0.003083 12:0.003154 13:0.009101 14:0.026775 15:0.02026 16:0.006405 17:0.002555 18:0.002324 19:0.016927 20:0.011465 21:0.008245 22:0.008399 23:0.012443 24:0.015888 25:0.0101 26:0.005294 27:0.002835 28:0.026811 29:0.017965 30:0.005649 31:0.002612 32:0.004972 33:0.006996 34:0.004647 35:0.005516 36:0.0045 37:0.025374 38:0.011535 39:0.00688 40:0.009394 41:0.018554 42:0.009782 43:0.002858 44:0.0033 45:0.009166 46:0.004602 47:0.004389 48:0.003321 49:0.007907 50:0.028216 51:0.019021 52:0.007702 53:0.003402 54:0.003176 55:0.000593 56:0.001107 57:0.0014 58:0.00235 59:0.013383 60:0.010412 61:0.002445 62:0.000492 63:0.000569 
-1000 1:0.000868 2:0.000622 3:7.7e-05 4:0.000511 5:0.00321 6:0.003155 7:0.000467 8:6.3e-05 9:0.000213 10:0.002285 11:0.002356 12:0.001687 13:0.007695 14:0.023177 15:0.026455 16:0.008603 17:0.001963 18:0.001158 19:0.012977 20:0.007171 21:0.005251 22:0.006465 23:0.019352 24:0.010885 25:0.012546 26:0.007194 27:0.008366 28:0.028159 29:0.016265 30:0.004557 31:0.002379 32:0.003864 33:0.003706 34:0.003377 35:0.004256 36:0.011113 37:0.024902 38:0.007721 39:0.005033 40:0.004264 41:0.014788 42:0.019609 43:0.007098 44:0.005562 45:0.008419 46:0.00473 47:0.004794 48:0.003492 49:0.006464 50:0.025136 51:0.023098 52:0.012331 53:0.002253 54:0.001536 55:0.000346 56:0.000867 57:0.000986 58:0.000919 59:0.009686 60:0.010395 61:0.001893 62:0.000406 63:0.000541 
